{"learner":{"attributes":{"scikit_learn":"{\"_estimator_type\": \"regressor\"}"},"feature_names":[],"feature_types":[],"gradient_booster":{"model":{"cats":{"enc":[],"feature_segments":[],"sorted_idx":[]},"gbtree_model_param":{"num_parallel_tree":"1","num_trees":"500"},"iteration_indptr":[0,1,2,3,4,5,6,7,8,9,10,11,12,13,14,15,16,17,18,19,20,21,22,23,24,25,26,27,28,29,30,31,32,33,34,35,36,37,38,39,40,41,42,43,44,45,46,47,48,49,50,51,52,53,54,55,56,57,58,59,60,61,62,63,64,65,66,67,68,69,70,71,72,73,74,75,76,77,78,79,80,81,82,83,84,85,86,87,88,89,90,91,92,93,94,95,96,97,98,99,100,101,102,103,104,105,106,107,108,109,110,111,112,113,114,115,116,117,118,119,120,121,122,123,124,125,126,127,128,129,130,131,132,133,134,135,136,137,138,139,140,141,142,143,144,145,146,147,148,149,150,151,152,153,154,155,156,157,158,159,160,161,162,163,164,165,166,167,168,169,170,171,172,173,174,175,176,177,178,179,180,181,182,183,184,185,186,187,188,189,190,191,192,193,194,195,196,197,198,199,200,201,202,203,204,205,206,207,208,209,210,211,212,213,214,215,216,217,218,219,220,221,222,223,224,225,226,227,228,229,230,231,232,233,234,235,236,237,238,239,240,241,242,243,244,245,246,247,248,249,250,251,252,253,254,255,256,257,258,259,260,261,262,263,264,265,266,267,268,269,270,271,272,273,274,275,276,277,278,279,280,281,282,283,284,285,286,287,288,289,290,291,292,293,294,295,296,297,298,299,300,301,302,303,304,305,306,307,308,309,310,311,312,313,314,315,316,317,318,319,320,321,322,323,324,325,326,327,328,329,330,331,332,333,334,335,336,337,338,339,340,341,342,343,344,345,346,347,348,349,350,351,352,353,354,355,356,357,358,359,360,361,362,363,364,365,366,367,368,369,370,371,372,373,374,375,376,377,378,379,380,381,382,383,384,385,386,387,388,389,390,391,392,393,394,395,396,397,398,399,400,401,402,403,404,405,406,407,408,409,410,411,412,413,414,415,416,417,418,419,420,421,422,423,424,425,426,427,428,429,430,431,432,433,434,435,436,437,438,439,440,441,442,443,444,445,446,447,448,449,450,451,452,453,454,455,456,457,458,459,460,461,462,463,464,465,466,467,468,469,470,471,472,473,474,475,476,477,478,479,480,481,482,483,484,485,486,487,488,489,490,491,492,493,494,495,496,497,498,499,500],"tree_info":[0,0,0,0,0,0,0,0,0,0,0,0,0,0,0,0,0,0,0,0,0,0,0,0,0,0,0,0,0,0,0,0,0,0,0,0,0,0,0,0,0,0,0,0,0,0,0,0,0,0,0,0,0,0,0,0,0,0,0,0,0,0,0,0,0,0,0,0,0,0,0,0,0,0,0,0,0,0,0,0,0,0,0,0,0,0,0,0,0,0,0,0,0,0,0,0,0,0,0,0,0,0,0,0,0,0,0,0,0,0,0,0,0,0,0,0,0,0,0,0,0,0,0,0,0,0,0,0,0,0,0,0,0,0,0,0,0,0,0,0,0,0,0,0,0,0,0,0,0,0,0,0,0,0,0,0,0,0,0,0,0,0,0,0,0,0,0,0,0,0,0,0,0,0,0,0,0,0,0,0,0,0,0,0,0,0,0,0,0,0,0,0,0,0,0,0,0,0,0,0,0,0,0,0,0,0,0,0,0,0,0,0,0,0,0,0,0,0,0,0,0,0,0,0,0,0,0,0,0,0,0,0,0,0,0,0,0,0,0,0,0,0,0,0,0,0,0,0,0,0,0,0,0,0,0,0,0,0,0,0,0,0,0,0,0,0,0,0,0,0,0,0,0,0,0,0,0,0,0,0,0,0,0,0,0,0,0,0,0,0,0,0,0,0,0,0,0,0,0,0,0,0,0,0,0,0,0,0,0,0,0,0,0,0,0,0,0,0,0,0,0,0,0,0,0,0,0,0,0,0,0,0,0,0,0,0,0,0,0,0,0,0,0,0,0,0,0,0,0,0,0,0,0,0,0,0,0,0,0,0,0,0,0,0,0,0,0,0,0,0,0,0,0,0,0,0,0,0,0,0,0,0,0,0,0,0,0,0,0,0,0,0,0,0,0,0,0,0,0,0,0,0,0,0,0,0,0,0,0,0,0,0,0,0,0,0,0,0,0,0,0,0,0,0,0,0,0,0,0,0,0,0,0,0,0,0,0,0,0,0,0,0,0,0,0,0,0,0,0,0,0,0,0,0,0,0,0,0,0,0,0,0,0,0,0,0,0,0,0,0,0,0,0,0,0,0,0,0,0,0,0,0,0,0,0,0,0,0,0,0,0,0,0,0,0,0,0,0,0,0],"trees":[{"base_weights":[2.2602702E-9,-2.505364E-2,1.1209E0,-3.9665237E-2,8.693849E-2,1.2326403E-1,6.1267164E-2,-5.1476907E-2,7.3824364E-1,-5.3996902E-2,1.5840262E-1,1.776405E-1,6.0417842E-2,-6.840175E-2,-3.188431E-2,-3.0518094E-2,3.2251453E-1,-6.752385E-2,3.259475E-2,-7.170973E-3,-2.153183E-3,-9.19839E-4,-5.850214E-3,-6.2449016E-3,-9.387795E-4,4.2494897E-2,2.1838998E-2,-2.537418E-3,-7.2056553E-3],"categories":[],"categories_nodes":[],"categories_segments":[],"categories_sizes":[],"default_left":[0,0,0,0,0,0,0,0,0,0,0,0,0,0,0,0,0,0,0,0,0,0,0,0,0,0,0,0,0],"id":0,"left_children":[1,3,5,7,-1,-1,-1,9,11,13,15,-1,17,19,21,23,25,27,-1,-1,-1,-1,-1,-1,-1,-1,-1,-1,-1],"loss_changes":[6.422497E1,2.9270227E1,2.084278E0,2.0270864E1,0E0,0E0,0E0,1.1562567E0,2.3114527E1,6.810627E-1,8.1595033E-1,0E0,7.3542774E-1,1.9970465E-1,5.1152664E-1,8.18497E-3,5.6518435E-2,1.0374114E-3,0E0,0E0,0E0,0E0,0E0,0E0,0E0,0E0,0E0,0E0,0E0],"parents":[2147483647,0,0,1,1,2,2,3,3,7,7,8,8,9,9,10,10,12,12,13,13,14,14,15,15,16,16,17,17],"right_children":[2,4,6,8,-1,-1,-1,10,12,14,16,-1,18,20,22,24,26,28,-1,-1,-1,-1,-1,-1,-1,-1,-1,-1,-1],"split_conditions":[1E0,1E0,1E0,9.16E0,8.693849E-2,1.2326403E-1,6.1267164E-2,1E0,-3.081815E1,1E0,1.2E1,1.776405E-1,1E0,1E0,1E0,1E0,1E0,1E0,3.259475E-2,-7.170973E-3,-2.153183E-3,-9.19839E-4,-5.850214E-3,-6.2449016E-3,-9.387795E-4,4.2494897E-2,2.1838998E-2,-2.537418E-3,-7.2056553E-3],"split_indices":[1803,2078,6553,4,0,0,0,1058,8545,3018,12882,0,8448,1555,2455,7427,6656,4928,0,0,0,0,0,0,0,0,0,0,0],"split_type":[0,0,0,0,0,0,0,0,0,0,0,0,0,0,0,0,0,0,0,0,0,0,0,0,0,0,0,0,0],"sum_hessian":[2.285E3,2.236E3,4.9E1,2.201E3,3.5E1,3.9E1,1E1,2.169E3,3.2E1,2.144E3,2.5E1,1.2E1,2E1,1.297E3,8.47E2,1.2E1,1.3E1,1.4E1,6E0,1.211E3,8.6E1,4.58E2,3.89E2,4E0,8E0,5E0,8E0,2E0,1.2E1],"tree_param":{"num_deleted":"0","num_feature":"13063","num_nodes":"29","size_leaf_vector":"1"}},{"base_weights":[2.2442006E-4,-2.2401433E-2,1.0125006E0,-3.5589017E-2,7.848614E-2,1.1124579E-1,5.569742E-2,-4.63103E-2,6.704948E-1,-4.8604716E-2,1.4476046E-1,1.6124293E-1,5.546423E-2,-6.1568752E-2,-2.8703861E-2,-2.8018877E-2,2.9485837E-1,-6.1421003E-2,2.9800912E-2,-6.4544673E-3,-1.9403398E-3,-1.0781864E-3,-5.652606E-3,-5.74531E-3,-8.5533236E-4,3.895366E-2,1.9897753E-2,-2.3682571E-3,-6.540518E-3],"categories":[],"categories_nodes":[],"categories_segments":[],"categories_sizes":[],"default_left":[0,0,0,0,0,0,0,0,0,0,0,0,0,0,0,0,0,0,0,0,0,0,0,0,0,0,0,0,0],"id":1,"left_children":[1,3,5,7,-1,-1,-1,9,11,13,15,-1,17,19,21,23,25,27,-1,-1,-1,-1,-1,-1,-1,-1,-1,-1,-1],"loss_changes":[5.2380337E1,2.3842688E1,1.6570473E0,1.670046E1,0E0,0E0,0E0,9.583564E-1,1.9028078E1,5.516324E-1,6.8254095E-1,0E0,6.1365235E-1,1.6162205E-1,4.2222828E-1,6.9569787E-3,4.9580455E-2,7.063858E-4,0E0,0E0,0E0,0E0,0E0,0E0,0E0,0E0,0E0,0E0,0E0],"parents":[2147483647,0,0,1,1,2,2,3,3,7,7,8,8,9,9,10,10,12,12,13,13,14,14,15,15,16,16,17,17],"right_children":[2,4,6,8,-1,-1,-1,10,12,14,16,-1,18,20,22,24,26,28,-1,-1,-1,-1,-1,-1,-1,-1,-1,-1,-1],"split_conditions":[1E0,1E0,1E0,9.16E0,7.848614E-2,1.1124579E-1,5.569742E-2,1E0,-3.081815E1,1E0,1.2E1,1.6124293E-1,1E0,1E0,1E0,1E0,1E0,1E0,2.9800912E-2,-6.4544673E-3,-1.9403398E-3,-1.0781864E-3,-5.652606E-3,-5.74531E-3,-8.5533236E-4,3.895366E-2,1.9897753E-2,-2.3682571E-3,-6.540518E-3],"split_indices":[1803,2078,6553,4,0,0,0,1058,8545,3018,12882,0,8448,1555,3241,7427,6656,4928,0,0,0,0,0,0,0,0,0,0,0],"split_type":[0,0,0,0,0,0,0,0,0,0,0,0,0,0,0,0,0,0,0,0,0,0,0,0,0,0,0,0,0],"sum_hessian":[2.285E3,2.236E3,4.9E1,2.201E3,3.5E1,3.9E1,1E1,2.169E3,3.2E1,2.144E3,2.5E1,1.2E1,2E1,1.297E3,8.47E2,1.2E1,1.3E1,1.4E1,6E0,1.211E3,8.6E1,5.16E2,3.31E2,4E0,8E0,5E0,8E0,2E0,1.2E1],"tree_param":{"num_deleted":"0","num_feature":"13063","num_nodes":"29","size_leaf_vector":"1"}},{"base_weights":[4.052546E-4,-2.0028189E-2,9.145894E-1,-3.193054E-2,7.0855536E-2,1.0039933E-1,5.0634015E-2,-4.1662157E-2,6.0896456E-1,-4.3751296E-2,1.3229404E-1,1.4635895E-1,5.091267E-2,-5.908446E-2,-3.0003503E-2,-2.572473E-2,2.695762E-1,-5.5872824E-2,2.724655E-2,-6.083082E-3,2.2688585E-4,-1.2612292E-3,-5.0922856E-3,-5.2856854E-3,-7.793026E-4,3.5707515E-2,1.8129064E-2,-2.2103733E-3,-5.936778E-3],"categories":[],"categories_nodes":[],"categories_segments":[],"categories_sizes":[],"default_left":[0,0,0,0,0,0,0,0,0,0,0,0,0,0,0,0,0,0,0,0,0,0,0,0,0,0,0,0,0],"id":2,"left_children":[1,3,5,7,-1,-1,-1,9,11,13,15,-1,17,19,21,23,25,27,-1,-1,-1,-1,-1,-1,-1,-1,-1,-1,-1],"loss_changes":[4.2720642E1,1.942157E1,1.3165855E0,1.3759125E1,0E0,0E0,0E0,7.9440594E-1,1.5664012E1,4.5038748E-1,5.709569E-1,0E0,5.120546E-1,1.0867572E-1,4.1155767E-1,5.912913E-3,4.3414235E-2,4.580766E-4,0E0,0E0,0E0,0E0,0E0,0E0,0E0,0E0,0E0,0E0,0E0],"parents":[2147483647,0,0,1,1,2,2,3,3,7,7,8,8,9,9,10,10,12,12,13,13,14,14,15,15,16,16,17,17],"right_children":[2,4,6,8,-1,-1,-1,10,12,14,16,-1,18,20,22,24,26,28,-1,-1,-1,-1,-1,-1,-1,-1,-1,-1,-1],"split_conditions":[1E0,1E0,1E0,9.16E0,7.0855536E-2,1.0039933E-1,5.0634015E-2,1E0,-3.081815E1,1E0,1.2E1,1.4635895E-1,1E0,1E0,1E0,1E0,1E0,1E0,2.724655E-2,-6.083082E-3,2.2688585E-4,-1.2612292E-3,-5.0922856E-3,-5.2856854E-3,-7.793026E-4,3.5707515E-2,1.8129064E-2,-2.2103733E-3,-5.936778E-3],"split_indices":[1803,2078,6553,4,0,0,0,1058,8545,2949,12882,0,8448,1347,3990,7427,6656,4928,0,0,0,0,0,0,0,0,0,0,0],"split_type":[0,0,0,0,0,0,0,0,0,0,0,0,0,0,0,0,0,0,0,0,0,0,0,0,0,0,0,0,0],"sum_hessian":[2.285E3,2.236E3,4.9E1,2.201E3,3.5E1,3.9E1,1E1,2.169E3,3.2E1,2.144E3,2.5E1,1.2E1,2E1,1.012E3,1.132E3,1.2E1,1.3E1,1.4E1,6E0,9.84E2,2.8E1,6.19E2,5.13E2,4E0,8E0,5E0,8E0,2E0,1.2E1],"tree_param":{"num_deleted":"0","num_feature":"13063","num_nodes":"29","size_leaf_vector":"1"}},{"base_weights":[5.497284E-4,-1.7903835E-2,8.2615113E-1,-2.8646197E-2,6.39668E-2,9.0610385E-2,4.6030924E-2,-3.7479553E-2,5.53082E-1,-3.9381858E-2,1.2090201E-1,1.328489E-1,4.6730895E-2,-5.0096087E-2,-2.2935571E-2,-2.3618795E-2,2.4646404E-1,-5.0828684E-2,2.491113E-2,-5.538752E-3,-3.2537133E-3,-5.88482E-4,-4.2944187E-3,-4.8628305E-3,-7.100314E-4,3.273189E-2,1.6517593E-2,-2.0630152E-3,-5.388768E-3],"categories":[],"categories_nodes":[],"categories_segments":[],"categories_sizes":[],"default_left":[0,0,0,0,0,0,0,0,0,0,0,0,0,0,0,0,0,0,0,0,0,0,0,0,0,0,0,0,0],"id":3,"left_children":[1,3,5,7,-1,-1,-1,9,11,13,15,-1,17,19,21,23,25,27,-1,-1,-1,-1,-1,-1,-1,-1,-1,-1,-1],"loss_changes":[3.4842655E1,1.5820215E1,1.0454178E0,1.1335955E1,0E0,0E0,0E0,6.585603E-1,1.28946495E1,3.7681985E-1,4.776258E-1,0E0,4.2728913E-1,1.1879802E-1,2.8905258E-1,5.0252727E-3,3.7950337E-2,2.7394667E-4,0E0,0E0,0E0,0E0,0E0,0E0,0E0,0E0,0E0,0E0,0E0],"parents":[2147483647,0,0,1,1,2,2,3,3,7,7,8,8,9,9,10,10,12,12,13,13,14,14,15,15,16,16,17,17],"right_children":[2,4,6,8,-1,-1,-1,10,12,14,16,-1,18,20,22,24,26,28,-1,-1,-1,-1,-1,-1,-1,-1,-1,-1,-1],"split_conditions":[1E0,1E0,1E0,9.16E0,6.39668E-2,9.0610385E-2,4.6030924E-2,1E0,-3.081815E1,1E0,1.2E1,1.328489E-1,1E0,1E0,1E0,1E0,1E0,1E0,2.491113E-2,-5.538752E-3,-3.2537133E-3,-5.88482E-4,-4.2944187E-3,-4.8628305E-3,-7.100314E-4,3.273189E-2,1.6517593E-2,-2.0630152E-3,-5.388768E-3],"split_indices":[1803,2078,6553,4,0,0,0,1058,8545,3018,12882,0,8448,2581,2455,7427,6656,4928,0,0,0,0,0,0,0,0,0,0,0],"split_type":[0,0,0,0,0,0,0,0,0,0,0,0,0,0,0,0,0,0,0,0,0,0,0,0,0,0,0,0,0],"sum_hessian":[2.285E3,2.236E3,4.9E1,2.201E3,3.5E1,3.9E1,1E1,2.169E3,3.2E1,2.144E3,2.5E1,1.2E1,2E1,1.297E3,8.47E2,1.2E1,1.3E1,1.4E1,6E0,9.95E2,3.02E2,4.58E2,3.89E2,4E0,8E0,5E0,8E0,2E0,1.2E1],"tree_param":{"num_deleted":"0","num_feature":"13063","num_nodes":"29","size_leaf_vector":"1"}},{"base_weights":[6.6138525E-4,-1.6004253E-2,7.462688E-1,-2.5699694E-2,5.7747807E-2,8.1775874E-2,4.184629E-2,-3.3717774E-2,5.0232863E-1,-3.545005E-2,1.10491686E-1,1.2058593E-1,4.2889208E-2,-3.859908E-2,1.2097018E-2,-2.1685597E-2,2.2533546E-1,-4.6242602E-2,2.2775892E-2,-4.9313265E-3,-2.5279622E-3,-2.6406997E-3,1.2585071E-3,-4.473804E-3,-6.4691744E-4,3.0004233E-2,1.5049361E-2,-1.9254809E-3,-4.891343E-3],"categories":[],"categories_nodes":[],"categories_segments":[],"categories_sizes":[],"default_left":[0,0,0,0,0,0,0,0,0,0,0,0,0,0,0,0,0,0,0,0,0,0,0,0,0,0,0,0,0],"id":4,"left_children":[1,3,5,7,-1,-1,-1,9,11,13,15,-1,17,19,21,23,25,27,-1,-1,-1,-1,-1,-1,-1,-1,-1,-1,-1],"loss_changes":[2.8417833E1,1.2886701E1,8.2954025E-1,9.339706E0,0E0,0E0,0E0,5.460055E-1,1.0614863E1,3.2163215E-1,3.9955983E-1,0E0,3.5656536E-1,2.8588033E-1,2.8504618E-3,4.2706667E-3,3.312236E-2,1.3937801E-4,0E0,0E0,0E0,0E0,0E0,0E0,0E0,0E0,0E0,0E0,0E0],"parents":[2147483647,0,0,1,1,2,2,3,3,7,7,8,8,9,9,10,10,12,12,13,13,14,14,15,15,16,16,17,17],"right_children":[2,4,6,8,-1,-1,-1,10,12,14,16,-1,18,20,22,24,26,28,-1,-1,-1,-1,-1,-1,-1,-1,-1,-1,-1],"split_conditions":[1E0,1E0,1E0,9.16E0,5.7747807E-2,8.1775874E-2,4.184629E-2,1E0,-3.081815E1,1E0,1.2E1,1.2058593E-1,1E0,1E0,1.396E1,1E0,1E0,1E0,2.2775892E-2,-4.9313265E-3,-2.5279622E-3,-2.6406997E-3,1.2585071E-3,-4.473804E-3,-6.4691744E-4,3.0004233E-2,1.5049361E-2,-1.9254809E-3,-4.891343E-3],"split_indices":[1803,2078,6553,4,0,0,0,1058,8545,5187,12882,0,8448,3104,0,7427,6656,4928,0,0,0,0,0,0,0,0,0,0,0],"split_type":[0,0,0,0,0,0,0,0,0,0,0,0,0,0,0,0,0,0,0,0,0,0,0,0,0,0,0,0,0],"sum_hessian":[2.285E3,2.236E3,4.9E1,2.201E3,3.5E1,3.9E1,1E1,2.169E3,3.2E1,2.144E3,2.5E1,1.2E1,2E1,2.011E3,1.33E2,1.2E1,1.3E1,1.4E1,6E0,1.113E3,8.98E2,1E0,1.32E2,4E0,8E0,5E0,8E0,2E0,1.2E1],"tree_param":{"num_deleted":"0","num_feature":"13063","num_nodes":"29","size_leaf_vector":"1"}},{"base_weights":[7.4791815E-4,-1.4303074E-2,6.7411435E-1,-2.3053594E-2,5.213344E-2,7.380272E-1,3.8042083E-2,-3.0331668E-2,4.5623347E-1,7.690821E-2,4.3386944E-2,-3.4580875E-2,1.8918332E-2,1.0945492E-1,3.9360244E-2,-3.7828475E-2,1.0877001E-2,9.658563E-3,2.7503882E-2,-4.2072795E-2,2.0823672E-2,-4.000862E-3,1.9498281E-3,-2.5086647E-3,1.1336026E-3,-3.8593396E-4,1.0446766E-2,-1.7971153E-3,-4.4398345E-3],"categories":[],"categories_nodes":[],"categories_segments":[],"categories_sizes":[],"default_left":[0,0,0,0,0,0,0,0,0,0,0,0,0,0,0,0,0,0,0,0,0,0,0,0,0,0,0,0,0],"id":5,"left_children":[1,3,5,7,-1,9,-1,11,13,-1,-1,15,17,-1,19,21,23,25,-1,27,-1,-1,-1,-1,-1,-1,-1,-1,-1],"loss_changes":[2.3177872E1,1.0497076E1,6.577797E-1,7.6950445E0,0E0,4.414177E-2,0E0,4.547776E-1,8.73811E0,0E0,0E0,2.9537416E-1,4.076332E-1,0E0,2.9755574E-1,2.3386884E-1,2.4964828E-3,2.1571536E-1,0E0,4.285574E-5,0E0,0E0,0E0,0E0,0E0,0E0,0E0,0E0,0E0],"parents":[2147483647,0,0,1,1,2,2,3,3,5,5,7,7,8,8,11,11,12,12,14,14,15,15,16,16,17,17,19,19],"right_children":[2,4,6,8,-1,10,-1,12,14,-1,-1,16,18,-1,20,22,24,26,-1,28,-1,-1,-1,-1,-1,-1,-1,-1,-1],"split_conditions":[1E0,1E0,1E0,9.16E0,5.213344E-2,1E0,3.8042083E-2,1E0,-3.081815E1,7.690821E-2,4.3386944E-2,1E0,1E0,1.0945492E-1,1E0,1E0,1.396E1,1E0,2.7503882E-2,1E0,2.0823672E-2,-4.000862E-3,1.9498281E-3,-2.5086647E-3,1.1336026E-3,-3.8593396E-4,1.0446766E-2,-1.7971153E-3,-4.4398345E-3],"split_indices":[1803,2078,6553,4,0,6656,0,1272,8545,0,0,5187,5166,0,8448,768,0,6656,0,4928,0,0,0,0,0,0,0,0,0],"split_type":[0,0,0,0,0,0,0,0,0,0,0,0,0,0,0,0,0,0,0,0,0,0,0,0,0,0,0,0,0],"sum_hessian":[2.285E3,2.236E3,4.9E1,2.201E3,3.5E1,3.9E1,1E1,2.169E3,3.2E1,3.4E1,5E0,1.997E3,1.72E2,1.2E1,2E1,1.864E3,1.33E2,1.67E2,5E0,1.4E1,6E0,1.796E3,6.8E1,1E0,1.32E2,1.47E2,2E1,2E0,1.2E1],"tree_param":{"num_deleted":"0","num_feature":"13063","num_nodes":"29","size_leaf_vector":"1"}},{"base_weights":[8.3438953E-4,-1.27787525E-2,6.0986966E-1,-2.0676402E-2,4.706491E-2,6.6723186E-1,3.4583714E-2,-2.728277E-2,4.1436893E-1,6.9437124E-2,3.9771363E-2,-2.8723817E-2,9.265292E-2,9.9351384E-2,3.6118824E-2,-3.9450705E-2,-1.9107698E-2,-1.9554691E-2,1.9022763E-1,-3.8281314E-3,1.9038787E-2,-4.091058E-3,1.1495006E-3,-6.510559E-4,-3.4265516E-3,-4.085025E-3,-5.551083E-4,2.521189E-2,1.2783038E-2],"categories":[],"categories_nodes":[],"categories_segments":[],"categories_sizes":[],"default_left":[0,0,0,0,0,0,0,0,0,0,0,0,0,0,0,0,0,0,0,0,0,0,0,0,0,0,0,0,0],"id":6,"left_children":[1,3,5,7,-1,9,-1,11,13,-1,-1,15,17,-1,19,21,23,25,27,-1,-1,-1,-1,-1,-1,-1,-1,-1,-1],"loss_changes":[1.8960752E1,8.550471E0,5.265217E-1,6.3400073E0,0E0,1.6420364E-2,0E0,3.777088E-1,7.19315E0,0E0,0E0,2.2050524E-1,2.8838414E-1,0E0,2.483187E-1,7.5811386E-2,2.1611771E-1,3.6500278E-3,2.1837413E-2,0E0,0E0,0E0,0E0,0E0,0E0,0E0,0E0,0E0,0E0],"parents":[2147483647,0,0,1,1,2,2,3,3,5,5,7,7,8,8,11,11,12,12,14,14,15,15,16,16,17,17,18,18],"right_children":[2,4,6,8,-1,10,-1,12,14,-1,-1,16,18,-1,20,22,24,26,28,-1,-1,-1,-1,-1,-1,-1,-1,-1,-1],"split_conditions":[1E0,1E0,1E0,9.16E0,4.706491E-2,1E0,3.4583714E-2,1E0,-3.081815E1,6.9437124E-2,3.9771363E-2,1E0,1.2E1,9.9351384E-2,1E0,1E0,1E0,1E0,1E0,-3.8281314E-3,1.9038787E-2,-4.091058E-3,1.1495006E-3,-6.510559E-4,-3.4265516E-3,-4.085025E-3,-5.551083E-4,2.521189E-2,1.2783038E-2],"split_indices":[1803,2078,6553,4,0,6656,0,1058,8545,0,0,2949,12882,0,8448,1347,3990,7427,6656,0,0,0,0,0,0,0,0,0,0],"split_type":[0,0,0,0,0,0,0,0,0,0,0,0,0,0,0,0,0,0,0,0,0,0,0,0,0,0,0,0,0],"sum_hessian":[2.285E3,2.236E3,4.9E1,2.201E3,3.5E1,3.9E1,1E1,2.169E3,3.2E1,3.4E1,5E0,2.144E3,2.5E1,1.2E1,2E1,1.012E3,1.132E3,1.2E1,1.3E1,1.4E1,6E0,9.84E2,2.8E1,6.19E2,5.13E2,4E0,8E0,5E0,8E0],"tree_param":{"num_deleted":"0","num_feature":"13063","num_nodes":"29","size_leaf_vector":"1"}},{"base_weights":[8.9607335E-4,-1.1416853E-2,5.517585E-1,-1.8544776E-2,4.2489152E-2,6.032389E-2,3.143974E-2,-2.4542358E-2,3.7640363E-1,-2.8099092E-2,1.667671E-2,9.018049E-2,3.323126E-2,-3.0853838E-2,1.0450903E-2,8.919149E-3,2.31109E-2,-3.4708392E-2,1.740689E-2,-3.2720908E-3,1.8218327E-3,-2.1786785E-3,1.0857102E-3,-2.648763E-4,9.002066E-3,-1.4220987E-3,-3.6766378E-3],"categories":[],"categories_nodes":[],"categories_segments":[],"categories_sizes":[],"default_left":[0,0,0,0,0,0,0,0,0,0,0,0,0,0,0,0,0,0,0,0,0,0,0,0,0,0,0],"id":7,"left_children":[1,3,5,7,-1,-1,-1,9,11,13,15,-1,17,19,21,23,-1,25,-1,-1,-1,-1,-1,-1,-1,-1,-1],"loss_changes":[1.5511618E1,6.9648867E0,4.213152E-1,5.225193E0,0E0,0E0,0E0,3.186021E-1,5.920037E0,2.1250093E-1,2.857193E-1,0E0,2.069793E-1,1.7146981E-1,1.9912617E-3,1.5785187E-1,0E0,1.0958873E-4,0E0,0E0,0E0,0E0,0E0,0E0,0E0,0E0,0E0],"parents":[2147483647,0,0,1,1,2,2,3,3,7,7,8,8,9,9,10,10,12,12,13,13,14,14,15,15,17,17],"right_children":[2,4,6,8,-1,-1,-1,10,12,14,16,-1,18,20,22,24,-1,26,-1,-1,-1,-1,-1,-1,-1,-1,-1],"split_conditions":[1E0,1E0,1E0,9.16E0,4.2489152E-2,6.032389E-2,3.143974E-2,1E0,-3.081815E1,1E0,1E0,9.018049E-2,1E0,1E0,1.396E1,1E0,2.31109E-2,1E0,1.740689E-2,-3.2720908E-3,1.8218327E-3,-2.1786785E-3,1.0857102E-3,-2.648763E-4,9.002066E-3,-1.4220987E-3,-3.6766378E-3],"split_indices":[1803,2078,6553,4,0,0,0,1272,8545,5187,5166,0,8448,768,0,6656,0,4928,0,0,0,0,0,0,0,0,0],"split_type":[0,0,0,0,0,0,0,0,0,0,0,0,0,0,0,0,0,0,0,0,0,0,0,0,0,0,0],"sum_hessian":[2.285E3,2.236E3,4.9E1,2.201E3,3.5E1,3.9E1,1E1,2.169E3,3.2E1,1.997E3,1.72E2,1.2E1,2E1,1.864E3,1.33E2,1.67E2,5E0,1.4E1,6E0,1.796E3,6.8E1,1E0,1.32E2,1.47E2,2E1,2E0,1.2E1],"tree_param":{"num_deleted":"0","num_feature":"13063","num_nodes":"27","size_leaf_vector":"1"}},{"base_weights":[9.228468E-4,-1.01972595E-2,4.9841794E-1,-1.6630447E-2,3.835826E-2,5.444231E-1,2.858158E-2,-2.2074617E-2,3.41869E-1,5.6831766E-2,3.143009E-2,-2.3272242E-2,7.7578485E-2,8.185614E-2,3.049424E-2,-3.2252632E-2,-1.5222456E-2,-1.7711658E-2,1.6052087E-1,-3.1577468E-2,1.5914872E-2,-3.356823E-3,1.3544401E-3,-2.123784E-3,6.329367E-4,-3.737033E-3,-4.8222113E-4,2.1184992E-2,1.0846585E-2,-1.3272922E-3,-3.337256E-3],"categories":[],"categories_nodes":[],"categories_segments":[],"categories_sizes":[],"default_left":[0,0,0,0,0,0,0,0,0,0,0,0,0,0,0,0,0,0,0,0,0,0,0,0,0,0,0,0,0,0,0],"id":8,"left_children":[1,3,5,7,-1,9,-1,11,13,-1,-1,15,17,-1,19,21,23,25,27,29,-1,-1,-1,-1,-1,-1,-1,-1,-1,-1,-1],"loss_changes":[1.2651689E1,5.6732807E0,3.33436E-1,4.305261E0,0E0,4.1324615E-2,0E0,2.6078856E-1,4.873228E0,0E0,0E0,1.5457165E-1,2.0833649E-1,0E0,1.7272739E-1,6.148839E-2,1.4701936E-1,3.1138547E-3,1.4428616E-2,4.9923547E-5,0E0,0E0,0E0,0E0,0E0,0E0,0E0,0E0,0E0,0E0,0E0],"parents":[2147483647,0,0,1,1,2,2,3,3,5,5,7,7,8,8,11,11,12,12,14,14,15,15,16,16,17,17,18,18,19,19],"right_children":[2,4,6,8,-1,10,-1,12,14,-1,-1,16,18,-1,20,22,24,26,28,30,-1,-1,-1,-1,-1,-1,-1,-1,-1,-1,-1],"split_conditions":[1E0,1E0,1E0,9.16E0,3.835826E-2,1E0,2.858158E-2,1E0,-3.081815E1,5.6831766E-2,3.143009E-2,1E0,1.2E1,8.185614E-2,1E0,1E0,1E0,1E0,1E0,1E0,1.5914872E-2,-3.356823E-3,1.3544401E-3,-2.123784E-3,6.329367E-4,-3.737033E-3,-4.8222113E-4,2.1184992E-2,1.0846585E-2,-1.3272922E-3,-3.337256E-3],"split_indices":[1803,2078,6553,4,0,6656,0,1058,8545,0,0,2949,12882,0,8448,1347,7273,7427,6656,4928,0,0,0,0,0,0,0,0,0,0,0],"split_type":[0,0,0,0,0,0,0,0,0,0,0,0,0,0,0,0,0,0,0,0,0,0,0,0,0,0,0,0,0,0,0],"sum_hessian":[2.285E3,2.236E3,4.9E1,2.201E3,3.5E1,3.9E1,1E1,2.169E3,3.2E1,3.4E1,5E0,2.144E3,2.5E1,1.2E1,2E1,1.012E3,1.132E3,1.2E1,1.3E1,1.4E1,6E0,9.84E2,2.8E1,8.85E2,2.47E2,4E0,8E0,5E0,8E0,2E0,1.2E1],"tree_param":{"num_deleted":"0","num_feature":"13063","num_nodes":"31","size_leaf_vector":"1"}},{"base_weights":[9.498195E-4,-9.107895E-3,4.5091298E-1,-1.4914077E-2,3.4628984E-2,4.921873E-1,2.5983253E-2,-1.985595E-2,3.1050348E-1,5.1310964E-2,2.8810916E-2,-2.2935925E-2,1.582987E-2,7.430018E-2,2.7980547E-2,-2.5862591E-2,2.3746286E-3,9.365435E-3,1.9419573E-2,-2.8730689E-2,1.4550741E-2,-2.7618383E-3,1.8356091E-3,-3.286973E-3,1.0192822E-3,-2.880522E-5,7.695356E-3,-1.238806E-3,-3.0292012E-3],"categories":[],"categories_nodes":[],"categories_segments":[],"categories_sizes":[],"default_left":[0,0,0,0,0,0,0,0,0,0,0,0,0,0,0,0,0,0,0,0,0,0,0,0,0,0,0,0,0],"id":9,"left_children":[1,3,5,7,-1,9,-1,11,13,-1,-1,15,17,-1,19,21,23,25,-1,27,-1,-1,-1,-1,-1,-1,-1,-1,-1],"loss_changes":[1.0349631E1,4.6212225E0,2.6644897E-1,3.5473607E0,0E0,2.2958755E-2,0E0,2.3887086E-1,4.011503E0,0E0,0E0,1.4806437E-1,1.9765624E-1,0E0,1.4414749E-1,1.3955796E-1,5.7648856E-2,1.0963563E-1,0E0,7.483177E-6,0E0,0E0,0E0,0E0,0E0,0E0,0E0,0E0,0E0],"parents":[2147483647,0,0,1,1,2,2,3,3,5,5,7,7,8,8,11,11,12,12,14,14,15,15,16,16,17,17,19,19],"right_children":[2,4,6,8,-1,10,-1,12,14,-1,-1,16,18,-1,20,22,24,26,-1,28,-1,-1,-1,-1,-1,-1,-1,-1,-1],"split_conditions":[1E0,1E0,1E0,9.16E0,3.4628984E-2,1E0,2.5983253E-2,1E0,-3.081815E1,5.1310964E-2,2.8810916E-2,1E0,1E0,7.430018E-2,1E0,1E0,1E0,1E0,1.9419573E-2,1E0,1.4550741E-2,-2.7618383E-3,1.8356091E-3,-3.286973E-3,1.0192822E-3,-2.880522E-5,7.695356E-3,-1.238806E-3,-3.0292012E-3],"split_indices":[1803,2078,6553,4,0,6656,0,1272,8545,0,0,8367,5166,0,8448,768,2884,6656,0,4928,0,0,0,0,0,0,0,0,0],"split_type":[0,0,0,0,0,0,0,0,0,0,0,0,0,0,0,0,0,0,0,0,0,0,0,0,0,0,0,0,0],"sum_hessian":[2.285E3,2.236E3,4.9E1,2.201E3,3.5E1,3.9E1,1E1,2.169E3,3.2E1,3.4E1,5E0,1.997E3,1.72E2,1.2E1,2E1,1.79E3,2.07E2,1.67E2,5E0,1.4E1,6E0,1.722E3,6.8E1,3.7E1,1.7E2,1.47E2,2E1,2E0,1.2E1],"tree_param":{"num_deleted":"0","num_feature":"13063","num_nodes":"29","size_leaf_vector":"1"}},{"base_weights":[9.6385356E-4,-8.133134E-3,4.0794381E-1,-1.3373407E-2,3.1262275E-2,4.4497162E-1,2.362114E-2,-1.7859345E-2,2.8201628E-1,4.632647E-2,2.6410012E-2,-2.064393E-2,1.4403448E-2,6.744171E-2,2.5672147E-2,-2.3276849E-2,2.1262623E-3,8.474524E-3,1.7801277E-2,-2.6142155E-3,1.3303535E-2,-2.4858147E-3,1.6547088E-3,-2.966926E-3,9.179499E-4,2.3664748E-3,-2.8898974E-3],"categories":[],"categories_nodes":[],"categories_segments":[],"categories_sizes":[],"default_left":[0,0,0,0,0,0,0,0,0,0,0,0,0,0,0,0,0,0,0,0,0,0,0,0,0,0,0],"id":10,"left_children":[1,3,5,7,-1,9,-1,11,13,-1,-1,15,17,-1,19,21,23,25,-1,-1,-1,-1,-1,-1,-1,-1,-1],"loss_changes":[8.466757E0,3.7642386E0,2.1283627E-1,2.9229066E0,0E0,9.999752E-3,0E0,1.9524693E-1,3.3021445E0,0E0,0E0,1.1983371E-1,1.6630618E-1,0E0,1.2029977E-1,1.1319691E-1,4.6918705E-2,9.605947E-2,0E0,0E0,0E0,0E0,0E0,0E0,0E0,0E0,0E0],"parents":[2147483647,0,0,1,1,2,2,3,3,5,5,7,7,8,8,11,11,12,12,14,14,15,15,16,16,17,17],"right_children":[2,4,6,8,-1,10,-1,12,14,-1,-1,16,18,-1,20,22,24,26,-1,-1,-1,-1,-1,-1,-1,-1,-1],"split_conditions":[1E0,1E0,1E0,9.16E0,3.1262275E-2,1E0,2.362114E-2,1E0,-3.081815E1,4.632647E-2,2.6410012E-2,1E0,1E0,6.744171E-2,1E0,1E0,1E0,3.586523E0,1.7801277E-2,-2.6142155E-3,1.3303535E-2,-2.4858147E-3,1.6547088E-3,-2.966926E-3,9.179499E-4,2.3664748E-3,-2.8898974E-3],"split_indices":[1803,2078,6553,4,0,6656,0,1272,8545,0,0,8367,5166,0,8448,768,2884,12944,0,0,0,0,0,0,0,0,0],"split_type":[0,0,0,0,0,0,0,0,0,0,0,0,0,0,0,0,0,0,0,0,0,0,0,0,0,0,0],"sum_hessian":[2.285E3,2.236E3,4.9E1,2.201E3,3.5E1,3.9E1,1E1,2.169E3,3.2E1,3.4E1,5E0,1.997E3,1.72E2,1.2E1,2E1,1.79E3,2.07E2,1.67E2,5E0,1.4E1,6E0,1.722E3,6.8E1,3.7E1,1.7E2,1.19E2,4.8E1],"tree_param":{"num_deleted":"0","num_feature":"13063","num_nodes":"27","size_leaf_vector":"1"}},{"base_weights":[9.637717E-4,-7.2644823E-3,3.6907658E-1,-1.1994045E-2,2.8222889E-2,4.0229288E-1,2.1473764E-2,-1.6066775E-2,2.5618225E-1,3.5088893E-2,5.059135E-2,-1.8580979E-2,1.3062974E-2,6.121632E-2,2.3613939E-2,-2.0949628E-2,1.9037861E-3,7.6239547E-3,1.6317837E-2,-2.3702221E-2,1.2163229E-2,-2.2373775E-3,1.4916362E-3,-2.678041E-3,8.2669186E-4,-9.051601E-5,6.7370865E-3,-9.819381E-4,-2.5082706E-3],"categories":[],"categories_nodes":[],"categories_segments":[],"categories_sizes":[],"default_left":[0,0,0,0,0,0,0,0,0,0,0,0,0,0,0,0,0,0,0,0,0,0,0,0,0,0,0,0,0],"id":11,"left_children":[1,3,5,7,-1,9,-1,11,13,-1,-1,15,17,-1,19,21,23,25,-1,27,-1,-1,-1,-1,-1,-1,-1,-1,-1],"loss_changes":[6.9268055E0,3.066234E0,1.6994095E-1,2.4091616E0,0E0,3.5541058E-2,0E0,1.5916944E-1,2.717611E0,0E0,0E0,9.698528E-2,1.400071E-1,0E0,1.0027785E-1,9.181517E-2,3.818583E-2,8.5671805E-2,0E0,4.117936E-5,0E0,0E0,0E0,0E0,0E0,0E0,0E0,0E0,0E0],"parents":[2147483647,0,0,1,1,2,2,3,3,5,5,7,7,8,8,11,11,12,12,14,14,15,15,16,16,17,17,19,19],"right_children":[2,4,6,8,-1,10,-1,12,14,-1,-1,16,18,-1,20,22,24,26,-1,28,-1,-1,-1,-1,-1,-1,-1,-1,-1],"split_conditions":[1E0,1E0,1E0,9.16E0,2.8222889E-2,1E0,2.1473764E-2,1E0,-3.081815E1,3.5088893E-2,5.059135E-2,1E0,1E0,6.121632E-2,1E0,1E0,1E0,1E0,1.6317837E-2,1E0,1.2163229E-2,-2.2373775E-3,1.4916362E-3,-2.678041E-3,8.2669186E-4,-9.051601E-5,6.7370865E-3,-9.819381E-4,-2.5082706E-3],"split_indices":[1803,2078,6553,4,0,6428,0,1272,8545,0,0,8367,5166,0,8448,768,2884,6656,0,4928,0,0,0,0,0,0,0,0,0],"split_type":[0,0,0,0,0,0,0,0,0,0,0,0,0,0,0,0,0,0,0,0,0,0,0,0,0,0,0,0,0],"sum_hessian":[2.285E3,2.236E3,4.9E1,2.201E3,3.5E1,3.9E1,1E1,2.169E3,3.2E1,2.9E1,1E1,1.997E3,1.72E2,1.2E1,2E1,1.79E3,2.07E2,1.67E2,5E0,1.4E1,6E0,1.722E3,6.8E1,3.7E1,1.7E2,1.47E2,2E1,2E0,1.2E1],"tree_param":{"num_deleted":"0","num_feature":"13063","num_nodes":"29","size_leaf_vector":"1"}},{"base_weights":[9.66096E-4,-6.4850715E-3,3.34312E-1,-1.0753652E-2,2.5478994E-2,3.642056E-1,1.9521605E-2,-1.4450712E-2,2.3268187E-1,3.1696964E-2,4.5992136E-2,-1.672418E-2,1.188942E-2,5.5565577E-2,2.1665553E-2,-1.930287E-2,-1.1571852E-3,6.901123E-3,1.4958017E-2,-2.156468E-2,1.1120669E-2,-2.0663983E-3,1.3446343E-3,-2.389171E-3,8.302503E-4,-5.589714E-3,1.387921E-3,-9.1647555E-4,-2.276738E-3],"categories":[],"categories_nodes":[],"categories_segments":[],"categories_sizes":[],"default_left":[0,0,0,0,0,0,0,0,0,0,0,0,0,0,0,0,0,0,0,0,0,0,0,0,0,0,0,0,0],"id":12,"left_children":[1,3,5,7,-1,9,-1,11,13,-1,-1,15,17,-1,19,21,23,25,-1,27,-1,-1,-1,-1,-1,-1,-1,-1,-1],"loss_changes":[5.680171E0,2.4976068E0,1.3680506E-1,1.9851527E0,0E0,3.5068035E-2,0E0,1.3014606E-1,2.2370028E0,0E0,0E0,8.0182195E-2,1.1779147E-1,0E0,8.36867E-2,7.6680064E-2,6.1490897E-2,7.439539E-2,0E0,1.5043188E-5,0E0,0E0,0E0,0E0,0E0,0E0,0E0,0E0,0E0],"parents":[2147483647,0,0,1,1,2,2,3,3,5,5,7,7,8,8,11,11,12,12,14,14,15,15,16,16,17,17,19,19],"right_children":[2,4,6,8,-1,10,-1,12,14,-1,-1,16,18,-1,20,22,24,26,-1,28,-1,-1,-1,-1,-1,-1,-1,-1,-1],"split_conditions":[1E0,1E0,1E0,9.16E0,2.5478994E-2,1E0,1.9521605E-2,1E0,-3.081815E1,3.1696964E-2,4.5992136E-2,1E0,1E0,5.5565577E-2,1E0,1E0,1E0,-6.9678593E0,1.4958017E-2,1E0,1.1120669E-2,-2.0663983E-3,1.3446343E-3,-2.389171E-3,8.302503E-4,-5.589714E-3,1.387921E-3,-9.1647555E-4,-2.276738E-3],"split_indices":[1803,2078,6553,4,0,6428,0,1272,8545,0,0,6952,5166,0,8448,768,3245,12959,0,4928,0,0,0,0,0,0,0,0,0],"split_type":[0,0,0,0,0,0,0,0,0,0,0,0,0,0,0,0,0,0,0,0,0,0,0,0,0,0,0,0,0],"sum_hessian":[2.285E3,2.236E3,4.9E1,2.201E3,3.5E1,3.9E1,1E1,2.169E3,3.2E1,2.9E1,1E1,1.997E3,1.72E2,1.2E1,2E1,1.713E3,2.84E2,1.67E2,5E0,1.4E1,6E0,1.645E3,6.8E1,8.3E1,2.01E2,1.6E1,1.51E2,2E0,1.2E1],"tree_param":{"num_deleted":"0","num_feature":"13063","num_nodes":"29","size_leaf_vector":"1"}},{"base_weights":[9.546385E-4,-5.7930034E-3,3.0282503E-1,-9.6456045E-3,2.3001866E-2,2.6355097E-1,4.1811034E-2,-1.3001734E-2,2.113377E-1,2.8632928E-2,1.7746912E-2,-1.729465E-2,-5.088197E-4,5.0436445E-2,1.9876491E-2,-1.9329855E-2,5.343172E-3,1.07105365E-2,-2.1666005E-2,-1.9621092E-3,1.0167467E-2,-2.0850925E-3,1.2121195E-3,-1.335848E-3,5.584226E-4,6.166873E-4,8.106354E-3,-2.8662826E-3,-1.3673161E-3],"categories":[],"categories_nodes":[],"categories_segments":[],"categories_sizes":[],"default_left":[0,0,0,0,0,0,0,0,0,0,0,0,0,0,0,0,0,0,0,0,0,0,0,0,0,0,0,0,0],"id":13,"left_children":[1,3,5,7,-1,9,-1,11,13,-1,-1,15,17,-1,19,21,23,25,27,-1,-1,-1,-1,-1,-1,-1,-1,-1,-1],"loss_changes":[4.6581383E0,2.0345068E0,1.1619282E-1,1.6358585E0,0E0,2.7617455E-2,0E0,1.1637056E-1,1.8413827E0,0E0,0E0,7.4510545E-2,1.3220978E-1,0E0,6.984241E-2,7.115054E-2,6.786827E-4,1.15856476E-1,1.0401517E-2,0E0,0E0,0E0,0E0,0E0,0E0,0E0,0E0,0E0,0E0],"parents":[2147483647,0,0,1,1,2,2,3,3,5,5,7,7,8,8,11,11,12,12,14,14,15,15,16,16,17,17,18,18],"right_children":[2,4,6,8,-1,10,-1,12,14,-1,-1,16,18,-1,20,22,24,26,28,-1,-1,-1,-1,-1,-1,-1,-1,-1,-1],"split_conditions":[1E0,1E0,1E0,9.16E0,2.3001866E-2,1E0,4.1811034E-2,1E0,-3.081815E1,2.8632928E-2,1.7746912E-2,1E0,1E0,5.0436445E-2,1E0,1E0,1.396E1,1E0,1E0,-1.9621092E-3,1.0167467E-2,-2.0850925E-3,1.2121195E-3,-1.335848E-3,5.584226E-4,6.166873E-4,8.106354E-3,-2.8662826E-3,-1.3673161E-3],"split_indices":[1803,2078,6428,4,0,6553,0,2581,8545,0,0,5187,4172,0,8448,768,0,7409,229,0,0,0,0,0,0,0,0,0,0],"split_type":[0,0,0,0,0,0,0,0,0,0,0,0,0,0,0,0,0,0,0,0,0,0,0,0,0,0,0,0,0],"sum_hessian":[2.285E3,2.236E3,4.9E1,2.201E3,3.5E1,3.9E1,1E1,2.169E3,3.2E1,2.9E1,1E1,1.614E3,5.55E2,1.2E1,2E1,1.481E3,1.33E2,3.63E2,1.92E2,1.4E1,6E0,1.413E3,6.8E1,1E0,1.32E2,3.42E2,2.1E1,1.01E2,9.1E1],"tree_param":{"num_deleted":"0","num_feature":"13063","num_nodes":"29","size_leaf_vector":"1"}},{"base_weights":[9.3471044E-4,-5.175937E-3,2.743064E-1,-8.653124E-3,2.0765577E-2,2.2568522E-1,3.4820594E-2,-1.1700253E-2,1.9198093E-1,1.7188422E-2,2.6097028E-2,-1.55662075E-2,-4.4986262E-4,4.5780767E-2,1.8279571E-2,-1.7683782E-2,2.4189458E-3,9.663448E-3,-1.952134E-2,-1.778979E-2,9.295969E-3,-1.9104577E-3,1.0926641E-3,-2.7855514E-5,5.7415348E-3,7.515008E-4,1.3660121E-2,-9.074285E-4,-2.3942487E-3,-7.245697E-4,-1.8854598E-3],"categories":[],"categories_nodes":[],"categories_segments":[],"categories_sizes":[],"default_left":[0,0,0,0,0,0,0,0,0,0,0,0,0,0,0,0,0,0,0,0,0,0,0,0,0,0,0,0,0,0,0],"id":14,"left_children":[1,3,5,7,-1,9,-1,11,13,-1,-1,15,17,-1,19,21,23,25,27,29,-1,-1,-1,-1,-1,-1,-1,-1,-1,-1,-1],"loss_changes":[3.820132E0,1.6573011E0,1.0106921E-1,1.3484564E0,0E0,1.7789602E-2,0E0,9.437394E-2,1.5153886E0,0E0,0E0,6.1549902E-2,1.0742758E-1,0E0,5.822068E-2,5.8947355E-2,2.5384331E-2,9.824288E-2,8.697018E-3,3.1796284E-5,0E0,0E0,0E0,0E0,0E0,0E0,0E0,0E0,0E0,0E0,0E0],"parents":[2147483647,0,0,1,1,2,2,3,3,5,5,7,7,8,8,11,11,12,12,14,14,15,15,16,16,17,17,18,18,19,19],"right_children":[2,4,6,8,-1,10,-1,12,14,-1,-1,16,18,-1,20,22,24,26,28,30,-1,-1,-1,-1,-1,-1,-1,-1,-1,-1,-1],"split_conditions":[1E0,1E0,1E0,9.16E0,2.0765577E-2,1E0,3.4820594E-2,1E0,-3.081815E1,1.7188422E-2,2.6097028E-2,1E0,1E0,4.5780767E-2,1E0,1E0,1E0,2.5E0,9.82E0,1E0,9.295969E-3,-1.9104577E-3,1.0926641E-3,-2.7855514E-5,5.7415348E-3,7.515008E-4,1.3660121E-2,-9.074285E-4,-2.3942487E-3,-7.245697E-4,-1.8854598E-3],"split_indices":[1803,2078,6462,4,0,7181,0,2581,8545,0,0,8258,4172,0,8448,768,2561,13030,0,4928,0,0,0,0,0,0,0,0,0,0,0],"split_type":[0,0,0,0,0,0,0,0,0,0,0,0,0,0,0,0,0,0,0,0,0,0,0,0,0,0,0,0,0,0,0],"sum_hessian":[2.285E3,2.236E3,4.9E1,2.201E3,3.5E1,3.2E1,1.7E1,2.169E3,3.2E1,1.5E1,1.7E1,1.614E3,5.55E2,1.2E1,2E1,1.444E3,1.7E2,3.63E2,1.92E2,1.4E1,6E0,1.376E3,6.8E1,1.63E2,7E0,3.58E2,5E0,5.8E1,1.34E2,2E0,1.2E1],"tree_param":{"num_deleted":"0","num_feature":"13063","num_nodes":"31","size_leaf_vector":"1"}},{"base_weights":[9.1444317E-4,-4.6184515E-3,2.4843787E-1,-7.7567156E-3,1.8746698E-2,2.1472488E-1,3.484453E-2,-1.0522852E-2,1.7437275E-1,2.3287294E-2,1.4570973E-2,-1.1191125E-2,4.501442E-2,4.1554853E-2,1.6769987E-2,-1.2336716E-2,1.1409718E-2,-1.9538034E-2,1.0174067E-2,-1.6184812E-2,8.499171E-3,-1.4325586E-3,-2.523872E-6,2.4463353E-3,-4.827567E-3,-3.488524E-3,-8.840915E-4,-6.7626516E-4,-1.7114172E-3],"categories":[],"categories_nodes":[],"categories_segments":[],"categories_sizes":[],"default_left":[0,0,0,0,0,0,0,0,0,0,0,0,0,0,0,0,0,0,0,0,0,0,0,0,0,0,0,0,0],"id":15,"left_children":[1,3,5,7,-1,9,-1,11,13,-1,-1,15,17,-1,19,21,23,25,-1,27,-1,-1,-1,-1,-1,-1,-1,-1,-1],"loss_changes":[3.1318724E0,1.3499508E0,9.375763E-2,1.1111912E0,0E0,1.616788E-2,0E0,8.104128E-2,1.2473602E0,0E0,0E0,5.5677623E-2,9.71951E-2,0E0,4.8588473E-2,4.9999893E-2,8.220856E-2,1.8258039E-3,0E0,1.561176E-5,0E0,0E0,0E0,0E0,0E0,0E0,0E0,0E0,0E0],"parents":[2147483647,0,0,1,1,2,2,3,3,5,5,7,7,8,8,11,11,12,12,14,14,15,15,16,16,17,17,19,19],"right_children":[2,4,6,8,-1,10,-1,12,14,-1,-1,16,18,-1,20,22,24,26,-1,28,-1,-1,-1,-1,-1,-1,-1,-1,-1],"split_conditions":[1E0,1E0,1E0,9.16E0,1.8746698E-2,1E0,3.484453E-2,1E0,-3.081815E1,2.3287294E-2,1.4570973E-2,1E0,1.2E1,4.1554853E-2,1E0,1E0,1E0,1E0,1.0174067E-2,1E0,8.499171E-3,-1.4325586E-3,-2.523872E-6,2.4463353E-3,-4.827567E-3,-3.488524E-3,-8.840915E-4,-6.7626516E-4,-1.7114172E-3],"split_indices":[1803,2078,6428,4,0,6553,0,1058,8545,0,0,1853,12882,0,8448,6952,6464,7427,0,4928,0,0,0,0,0,0,0,0,0],"split_type":[0,0,0,0,0,0,0,0,0,0,0,0,0,0,0,0,0,0,0,0,0,0,0,0,0,0,0,0,0],"sum_hessian":[2.285E3,2.236E3,4.9E1,2.201E3,3.5E1,3.9E1,1E1,2.169E3,3.2E1,2.9E1,1E1,2.144E3,2.5E1,1.2E1,2E1,2.041E3,1.03E2,1.2E1,1.3E1,1.4E1,6E0,1.757E3,2.84E2,8.5E1,1.8E1,4E0,8E0,2E0,1.2E1],"tree_param":{"num_deleted":"0","num_feature":"13063","num_nodes":"29","size_leaf_vector":"1"}},{"base_weights":[8.8472356E-4,-4.12603E-3,2.2504814E-1,-6.9584954E-3,1.6924104E-2,2.0044853E-1,3.4752455E-2,-9.469652E-3,1.583799E-1,2.172973E-2,1.3014789E-2,-1.2790052E-2,1.9207103E-4,3.7719022E-2,1.5384012E-2,-1.8216709E-2,-7.029108E-3,8.909503E-3,-1.625009E-2,-1.472551E-2,7.77067E-3,-1.886664E-3,2.105904E-3,-8.913763E-4,4.069851E-3,5.018413E-4,6.9170156E-3,-9.6144126E-4,-2.20759E-3,-6.3118065E-4,-1.5534402E-3],"categories":[],"categories_nodes":[],"categories_segments":[],"categories_sizes":[],"default_left":[0,0,0,0,0,0,0,0,0,0,0,0,0,0,0,0,0,0,0,0,0,0,0,0,0,0,0,0,0,0,0],"id":16,"left_children":[1,3,5,7,-1,9,-1,11,13,-1,-1,15,17,-1,19,21,23,25,27,29,-1,-1,-1,-1,-1,-1,-1,-1,-1,-1,-1],"loss_changes":[2.5686269E0,1.0996705E0,8.098292E-2,9.1574925E-1,0E0,2.3836255E-2,0E0,6.961778E-2,1.0267335E0,0E0,0E0,5.0361156E-2,7.983818E-2,0E0,4.0550906E-2,2.1609902E-2,7.0973605E-2,8.500347E-2,7.248789E-3,4.036585E-6,0E0,0E0,0E0,0E0,0E0,0E0,0E0,0E0,0E0,0E0,0E0],"parents":[2147483647,0,0,1,1,2,2,3,3,5,5,7,7,8,8,11,11,12,12,14,14,15,15,16,16,17,17,18,18,19,19],"right_children":[2,4,6,8,-1,10,-1,12,14,-1,-1,16,18,-1,20,22,24,26,28,30,-1,-1,-1,-1,-1,-1,-1,-1,-1,-1,-1],"split_conditions":[1E0,1E0,1E0,9.16E0,1.6924104E-2,1E0,3.4752455E-2,1E0,-3.081815E1,2.172973E-2,1.3014789E-2,1E0,1E0,3.7719022E-2,1E0,1E0,1E0,1E0,1E0,1E0,7.77067E-3,-1.886664E-3,2.105904E-3,-8.913763E-4,4.069851E-3,5.018413E-4,6.9170156E-3,-9.6144126E-4,-2.20759E-3,-6.3118065E-4,-1.5534402E-3],"split_indices":[1803,2078,4355,4,0,6683,0,2581,8545,0,0,4062,4172,0,8448,4671,4355,7409,4242,4928,0,0,0,0,0,0,0,0,0,0,0],"split_type":[0,0,0,0,0,0,0,0,0,0,0,0,0,0,0,0,0,0,0,0,0,0,0,0,0,0,0,0,0,0,0],"sum_hessian":[2.285E3,2.236E3,4.9E1,2.201E3,3.5E1,4.3E1,6E0,2.169E3,3.2E1,3.3E1,1E1,1.614E3,5.55E2,1.2E1,2E1,8.3E2,7.84E2,3.63E2,1.92E2,1.4E1,6E0,8.17E2,1.3E1,7.55E2,2.9E1,3.42E2,2.1E1,9.1E1,1.01E2,2E0,1.2E1],"tree_param":{"num_deleted":"0","num_feature":"13063","num_nodes":"31","size_leaf_vector":"1"}},{"base_weights":[8.563453E-4,-3.6830837E-3,2.0393327E-1,-6.2395064E-3,1.5278707E-2,1.7519112E-1,2.8991083E-2,-8.519162E-3,1.438542E-1,1.9080898E-2,1.1667045E-2,-1.225369E-2,-1.18114E-3,3.4237266E-2,1.4111617E-2,-1.4892893E-2,3.3370908E-3,-2.6482698E-3,8.027899E-2,-1.33986E-3,7.104614E-3,1.4546442E-4,-1.6842831E-3,-4.1024712E-5,5.9866975E-3,-3.7913083E-4,5.9895017E-3,9.901016E-3,-1.5161604E-3],"categories":[],"categories_nodes":[],"categories_segments":[],"categories_sizes":[],"default_left":[0,0,0,0,0,0,0,0,0,0,0,0,0,0,0,0,0,0,0,0,0,0,0,0,0,0,0,0,0],"id":17,"left_children":[1,3,5,7,-1,9,-1,11,13,-1,-1,15,17,-1,19,21,23,25,27,-1,-1,-1,-1,-1,-1,-1,-1,-1,-1],"loss_changes":[2.1081078E0,8.957619E-1,7.27694E-2,7.5466615E-1,0E0,1.4296889E-2,0E0,5.9452325E-2,8.4512633E-1,0E0,0E0,5.9219405E-2,8.781532E-2,0E0,3.384382E-2,3.923279E-2,4.4298403E-2,5.1770937E-2,2.4741434E-2,0E0,0E0,0E0,0E0,0E0,0E0,0E0,0E0,0E0,0E0],"parents":[2147483647,0,0,1,1,2,2,3,3,5,5,7,7,8,8,11,11,12,12,14,14,15,15,16,16,17,17,18,18],"right_children":[2,4,6,8,-1,10,-1,12,14,-1,-1,16,18,-1,20,22,24,26,28,-1,-1,-1,-1,-1,-1,-1,-1,-1,-1],"split_conditions":[1E0,1E0,1E0,9.16E0,1.5278707E-2,1E0,2.8991083E-2,1E0,-3.081815E1,1.9080898E-2,1.1667045E-2,1E0,1E0,3.4237266E-2,1E0,-1.9005728E0,1E0,1E0,1E0,-1.33986E-3,7.104614E-3,1.4546442E-4,-1.6842831E-3,-4.1024712E-5,5.9866975E-3,-3.7913083E-4,5.9895017E-3,9.901016E-3,-1.5161604E-3],"split_indices":[1803,2078,6428,4,0,6553,0,3162,8545,0,0,7285,5166,0,8448,12957,1860,6913,1026,0,0,0,0,0,0,0,0,0,0],"split_type":[0,0,0,0,0,0,0,0,0,0,0,0,0,0,0,0,0,0,0,0,0,0,0,0,0,0,0,0,0],"sum_hessian":[2.285E3,2.236E3,4.9E1,2.201E3,3.5E1,3.9E1,1E1,2.169E3,3.2E1,2.9E1,1E1,1.437E3,7.32E2,1.2E1,2E1,1.229E3,2.08E2,7.2E2,1.2E1,1.4E1,6E0,1.31E2,1.098E3,1.96E2,1.2E1,7.08E2,1.2E1,1E1,2E0],"tree_param":{"num_deleted":"0","num_feature":"13063","num_nodes":"29","size_leaf_vector":"1"}},{"base_weights":[8.2907575E-4,-3.2818369E-3,1.8473473E-1,-5.5890325E-3,1.3793279E-2,1.6333014E-1,2.9288718E-2,-7.658766E-3,1.3068098E-1,1.776114E-1,1.04339905E-2,-1.0483485E-2,5.5990333E-4,3.1076906E-2,1.2974974E-2,1.8645596E-2,1.0526079E-2,-1.19456705E-2,5.7660835E-3,8.057392E-3,-1.358334E-2,-1.2148064E-2,6.4956485E-3,-1.3130785E-3,1.2513701E-3,-1.1711521E-3,5.985551E-4,-1.3166342E-3,1.6597527E-3,-5.4561085E-4,-1.7034624E-3,-4.99778E-4,-1.2863664E-3],"categories":[],"categories_nodes":[],"categories_segments":[],"categories_sizes":[],"default_left":[0,0,0,0,0,0,0,0,0,0,0,0,0,0,0,0,0,0,0,0,0,0,0,0,0,0,0,0,0,0,0,0,0],"id":18,"left_children":[1,3,5,7,-1,9,-1,11,13,15,-1,17,19,-1,21,-1,-1,23,25,27,29,31,-1,-1,-1,-1,-1,-1,-1,-1,-1,-1,-1],"loss_changes":[1.7288681E0,7.2960734E-1,6.791067E-2,6.220585E-1,0E0,1.853609E-2,0E0,5.038336E-2,6.954837E-1,2.1303892E-3,0E0,3.8441107E-2,5.906703E-2,0E0,2.8213698E-2,0E0,0E0,4.312326E-2,5.84092E-4,6.619482E-2,5.3205863E-3,1.2461562E-5,0E0,0E0,0E0,0E0,0E0,0E0,0E0,0E0,0E0,0E0,0E0],"parents":[2147483647,0,0,1,1,2,2,3,3,5,5,7,7,8,8,9,9,11,11,12,12,14,14,17,17,18,18,19,19,20,20,21,21],"right_children":[2,4,6,8,-1,10,-1,12,14,16,-1,18,20,-1,22,-1,-1,24,26,28,30,32,-1,-1,-1,-1,-1,-1,-1,-1,-1,-1,-1],"split_conditions":[1E0,1E0,1E0,9.16E0,1.3793279E-2,1E0,2.9288718E-2,1E0,-3.081815E1,1E0,1.04339905E-2,1E0,1E0,3.1076906E-2,1E0,1.8645596E-2,1.0526079E-2,1E0,1.396E1,2.130456E0,9.82E0,1E0,6.4956485E-3,-1.3130785E-3,1.2513701E-3,-1.1711521E-3,5.985551E-4,-1.3166342E-3,1.6597527E-3,-5.4561085E-4,-1.7034624E-3,-4.99778E-4,-1.2863664E-3],"split_indices":[1803,2078,4355,4,0,6683,0,2581,8545,6656,0,5187,4172,0,8448,0,0,768,0,12940,0,4928,0,0,0,0,0,0,0,0,0,0,0],"split_type":[0,0,0,0,0,0,0,0,0,0,0,0,0,0,0,0,0,0,0,0,0,0,0,0,0,0,0,0,0,0,0,0,0],"sum_hessian":[2.285E3,2.236E3,4.9E1,2.201E3,3.5E1,4.3E1,6E0,2.169E3,3.2E1,3.3E1,1E1,1.614E3,5.55E2,1.2E1,2E1,2.8E1,5E0,1.481E3,1.33E2,3.63E2,1.92E2,1.4E1,6E0,1.413E3,6.8E1,1E0,1.32E2,1.04E2,2.59E2,5.8E1,1.34E2,2E0,1.2E1],"tree_param":{"num_deleted":"0","num_feature":"13063","num_nodes":"33","size_leaf_vector":"1"}},{"base_weights":[7.9688197E-4,-2.9326256E-3,1.676391E-1,-5.015031E-3,1.2452265E-2,1.4789723E-1,2.6778251E-2,-6.8940595E-3,1.1869729E-1,1.607082E-1,9.485447E-3,7.433525E-3,-8.256834E-3,2.8208265E-2,1.1901733E-2,1.6845327E-2,9.648907E-3,-1.1040587E-2,3.4448344E-2,-4.6931626E-3,-1.532344E-2,-1.1052334E-2,5.938878E-3,-1.8275569E-3,5.605244E-4,5.6808535E-4,6.091625E-3,-5.353018E-4,5.7197115E-3,-1.6491121E-3,-6.5449865E-5,-4.664595E-4,-1.1676248E-3],"categories":[],"categories_nodes":[],"categories_segments":[],"categories_sizes":[],"default_left":[0,0,0,0,0,0,0,0,0,0,0,0,0,0,0,0,0,0,0,0,0,0,0,0,0,0,0,0,0,0,0,0,0],"id":19,"left_children":[1,3,5,7,-1,9,-1,11,13,15,-1,17,19,-1,21,-1,-1,23,25,27,29,31,-1,-1,-1,-1,-1,-1,-1,-1,-1,-1,-1],"loss_changes":[1.4229307E0,5.943547E-1,5.924666E-2,5.12693E-1,0E0,1.4655471E-2,0E0,4.243122E-2,5.7245415E-1,6.570816E-4,0E0,9.4705455E-2,4.9840912E-2,0E0,2.3546822E-2,0E0,0E0,1.3711284E-2,5.828292E-2,5.4172315E-2,1.1362627E-2,5.3161057E-6,0E0,0E0,0E0,0E0,0E0,0E0,0E0,0E0,0E0,0E0,0E0],"parents":[2147483647,0,0,1,1,2,2,3,3,5,5,7,7,8,8,9,9,11,11,12,12,14,14,17,17,18,18,19,19,20,20,21,21],"right_children":[2,4,6,8,-1,10,-1,12,14,16,-1,18,20,-1,22,-1,-1,24,26,28,30,32,-1,-1,-1,-1,-1,-1,-1,-1,-1,-1,-1],"split_conditions":[1E0,1E0,1E0,9.16E0,1.2452265E-2,1E0,2.6778251E-2,-1.9005728E0,-3.081815E1,1E0,9.485447E-3,1E0,3.6847E2,2.8208265E-2,1E0,1.6845327E-2,9.648907E-3,1E0,1E0,1E0,1E0,1E0,5.938878E-3,-1.8275569E-3,5.605244E-4,5.6808535E-4,6.091625E-3,-5.353018E-4,5.7197115E-3,-1.6491121E-3,-6.5449865E-5,-4.664595E-4,-1.1676248E-3],"split_indices":[1803,2078,4355,4,0,6683,0,12957,8545,6656,0,3354,6,0,8448,0,0,3674,13013,5387,1574,4928,0,0,0,0,0,0,0,0,0,0,0],"split_type":[0,0,0,0,0,0,0,0,0,0,0,0,0,0,0,0,0,0,0,0,0,0,0,0,0,0,0,0,0,0,0,0,0],"sum_hessian":[2.285E3,2.236E3,4.9E1,2.201E3,3.5E1,4.3E1,6E0,2.169E3,3.2E1,3.3E1,1E1,1.88E2,1.981E3,1.2E1,2E1,2.8E1,5E0,1.12E2,7.6E1,1.318E3,6.63E2,1.4E1,6E0,7.8E1,3.4E1,3.7E1,3.9E1,1.305E3,1.3E1,6.14E2,4.9E1,2E0,1.2E1],"tree_param":{"num_deleted":"0","num_feature":"13063","num_nodes":"33","size_leaf_vector":"1"}},{"base_weights":[7.6819415E-4,-2.6153E-3,1.5213037E-1,-4.494738E-3,1.124163E-2,1.3392521E-1,2.4482977E-2,-6.2005697E-3,1.0781283E-1,1.454166E-2,8.623136E-3,-7.4409647E-3,8.160762E-3,2.560443E-2,1.0916548E-2,5.1363315E-3,-8.673875E-3,1.938247E-2,-2.063259E-2,-1.0056039E-3,5.42983E-3,-8.721353E-4,2.7885218E-3,-5.769733E-4,-1.6371676E-3,8.067933E-3,1.1547304E-3,-4.420468E-3,-7.8641606E-4],"categories":[],"categories_nodes":[],"categories_segments":[],"categories_sizes":[],"default_left":[0,0,0,0,0,0,0,0,0,0,0,0,0,0,0,0,0,0,0,0,0,0,0,0,0,0,0,0,0],"id":20,"left_children":[1,3,5,7,-1,9,-1,11,13,-1,-1,15,17,-1,19,21,23,25,27,-1,-1,-1,-1,-1,-1,-1,-1,-1,-1],"loss_changes":[1.171134E0,4.8413292E-1,5.1591396E-2,4.2252284E-1,0E0,1.157552E-2,0E0,3.871651E-2,4.7118655E-1,0E0,0E0,3.102687E-2,5.629804E-2,0E0,1.9652404E-2,5.667239E-2,4.0592566E-2,5.910225E-2,1.440032E-2,0E0,0E0,0E0,0E0,0E0,0E0,0E0,0E0,0E0,0E0],"parents":[2147483647,0,0,1,1,2,2,3,3,5,5,7,7,8,8,11,11,12,12,14,14,15,15,16,16,17,17,18,18],"right_children":[2,4,6,8,-1,10,-1,12,14,-1,-1,16,18,-1,20,22,24,26,28,-1,-1,-1,-1,-1,-1,-1,-1,-1,-1],"split_conditions":[1E0,1E0,1E0,9.16E0,1.124163E-2,1E0,2.4482977E-2,1E0,-3.081815E1,1.454166E-2,8.623136E-3,-1.9005728E0,3.586523E0,2.560443E-2,1E0,1E0,1E0,-1.5913641E0,-6.9678593E0,-1.0056039E-3,5.42983E-3,-8.721353E-4,2.7885218E-3,-5.769733E-4,-1.6371676E-3,8.067933E-3,1.1547304E-3,-4.420468E-3,-7.8641606E-4],"split_indices":[1803,2078,4355,4,0,6683,0,1272,8545,0,0,12957,12944,0,8448,2695,2953,12957,12959,0,0,0,0,0,0,0,0,0,0],"split_type":[0,0,0,0,0,0,0,0,0,0,0,0,0,0,0,0,0,0,0,0,0,0,0,0,0,0,0,0,0],"sum_hessian":[2.285E3,2.236E3,4.9E1,2.201E3,3.5E1,4.3E1,6E0,2.169E3,3.2E1,3.3E1,1E1,1.997E3,1.72E2,1.2E1,2E1,1.78E2,1.819E3,1.24E2,4.8E1,1.4E1,6E0,1.11E2,6.7E1,1.322E3,4.97E2,1.3E1,1.11E2,1.6E1,3.2E1],"tree_param":{"num_deleted":"0","num_feature":"13063","num_nodes":"29","size_leaf_vector":"1"}},{"base_weights":[7.3189836E-4,-2.333659E-3,1.378703E-1,-4.029939E-3,1.0148695E-2,1.21059194E-1,2.2384437E-2,-5.578799E-3,9.794149E-2,1.3165283E-1,7.730983E-3,-8.45144E-3,6.43614E-5,2.324094E-2,1.0035568E-2,1.3814859E-2,7.831451E-3,-1.0592959E-2,4.1921902E-3,-1.0732764E-3,6.3154556E-2,-9.117476E-3,4.964415E-3,1.5487825E-4,-1.2041655E-3,9.480837E-5,5.303041E-3,-2.2464377E-4,5.0759534E-3,7.8027765E-3,-1.2432066E-3,-3.6832195E-4,-9.6701906E-4],"categories":[],"categories_nodes":[],"categories_segments":[],"categories_sizes":[],"default_left":[0,0,0,0,0,0,0,0,0,0,0,0,0,0,0,0,0,0,0,0,0,0,0,0,0,0,0,0,0,0,0,0,0],"id":21,"left_children":[1,3,5,7,-1,9,-1,11,13,15,-1,17,19,-1,21,-1,-1,23,25,27,29,31,-1,-1,-1,-1,-1,-1,-1,-1,-1,-1,-1],"loss_changes":[9.61369E-1,3.943644E-1,4.5167565E-2,3.483292E-1,0E0,1.0214448E-2,0E0,3.517793E-2,3.8774496E-1,9.610653E-4,0E0,3.8980506E-2,5.267797E-2,0E0,1.6383754E-2,0E0,0E0,2.1653965E-2,3.3062927E-2,4.3956768E-2,1.558486E-2,9.436626E-6,0E0,0E0,0E0,0E0,0E0,0E0,0E0,0E0,0E0,0E0,0E0],"parents":[2147483647,0,0,1,1,2,2,3,3,5,5,7,7,8,8,9,9,11,11,12,12,14,14,17,17,18,18,19,19,20,20,21,21],"right_children":[2,4,6,8,-1,10,-1,12,14,16,-1,18,20,-1,22,-1,-1,24,26,28,30,32,-1,-1,-1,-1,-1,-1,-1,-1,-1,-1,-1],"split_conditions":[1E0,1E0,1E0,9.16E0,1.0148695E-2,1E0,2.2384437E-2,1E0,-3.081815E1,1E0,7.730983E-3,1E0,1E0,2.324094E-2,1E0,1.3814859E-2,7.831451E-3,-1.9005728E0,1E0,2.210028E0,1E0,1E0,4.964415E-3,1.5487825E-4,-1.2041655E-3,9.480837E-5,5.303041E-3,-2.2464377E-4,5.0759534E-3,7.8027765E-3,-1.2432066E-3,-3.6832195E-4,-9.6701906E-4],"split_indices":[1803,2078,4355,4,0,6553,0,3162,8545,6656,0,7285,5166,0,8448,0,0,12957,1860,12957,1026,4928,0,0,0,0,0,0,0,0,0,0,0],"split_type":[0,0,0,0,0,0,0,0,0,0,0,0,0,0,0,0,0,0,0,0,0,0,0,0,0,0,0,0,0,0,0,0,0],"sum_hessian":[2.285E3,2.236E3,4.9E1,2.201E3,3.5E1,4.3E1,6E0,2.169E3,3.2E1,3.3E1,1E1,1.437E3,7.32E2,1.2E1,2E1,2.8E1,5E0,1.229E3,2.08E2,7.2E2,1.2E1,1.4E1,6E0,1.31E2,1.098E3,1.96E2,1.2E1,7.05E2,1.5E1,1E1,2E0,2E0,1.2E1],"tree_param":{"num_deleted":"0","num_feature":"13063","num_nodes":"33","size_leaf_vector":"1"}},{"base_weights":[7.044397E-4,-2.0767E-3,1.2511854E-1,-3.6075856E-3,9.162015E-3,1.0962097E-1,2.0465773E-2,-5.0136573E-3,8.896159E-2,1.1912425E-1,7.0281685E-3,-3.2267848E-3,-1.3342414E-2,2.1095624E-2,9.204828E-3,1.2481016E-2,7.178829E-3,-4.003481E-3,3.5788994E-2,-1.1329922E-2,-2.0479977E-2,-8.294751E-3,4.538895E-3,-1.0305996E-4,-1.1983128E-3,1.5724788E-3,1.30145205E-2,-1.2154672E-3,1.3885772E-3,-4.2529614E-3,-1.788949E-3,-3.4376708E-4,-8.777557E-4],"categories":[],"categories_nodes":[],"categories_segments":[],"categories_sizes":[],"default_left":[0,0,0,0,0,0,0,0,0,0,0,0,0,0,0,0,0,0,0,0,0,0,0,0,0,0,0,0,0,0,0,0,0],"id":22,"left_children":[1,3,5,7,-1,9,-1,11,13,15,-1,17,19,-1,21,-1,-1,23,25,27,29,31,-1,-1,-1,-1,-1,-1,-1,-1,-1,-1,-1],"loss_changes":[7.912455E-1,3.2120392E-1,3.91984E-2,2.8705588E-1,0E0,8.077204E-3,0E0,3.2251816E-2,3.1914485E-1,1.911223E-4,0E0,5.432579E-2,5.2694976E-3,0E0,1.3673835E-2,0E0,0E0,4.1596998E-2,6.4214885E-2,6.428566E-3,3.9800704E-3,5.001202E-6,0E0,0E0,0E0,0E0,0E0,0E0,0E0,0E0,0E0,0E0,0E0],"parents":[2147483647,0,0,1,1,2,2,3,3,5,5,7,7,8,8,9,9,11,11,12,12,14,14,17,17,18,18,19,19,20,20,21,21],"right_children":[2,4,6,8,-1,10,-1,12,14,16,-1,18,20,-1,22,-1,-1,24,26,28,30,32,-1,-1,-1,-1,-1,-1,-1,-1,-1,-1,-1],"split_conditions":[1E0,1E0,1E0,9.16E0,9.162015E-3,1E0,2.0465773E-2,2.4E1,-3.081815E1,1E0,7.0281685E-3,1E0,1E0,2.1095624E-2,1E0,1.2481016E-2,7.178829E-3,1E0,1E0,4.7E1,1E0,1E0,4.538895E-3,-1.0305996E-4,-1.1983128E-3,1.5724788E-3,1.30145205E-2,-1.2154672E-3,1.3885772E-3,-4.2529614E-3,-1.788949E-3,-3.4376708E-4,-8.777557E-4],"split_indices":[1803,2078,4355,4,0,6553,0,12932,8545,6656,0,768,2354,0,8448,0,0,4091,7171,12929,2779,4928,0,0,0,0,0,0,0,0,0,0,0],"split_type":[0,0,0,0,0,0,0,0,0,0,0,0,0,0,0,0,0,0,0,0,0,0,0,0,0,0,0,0,0,0,0,0,0],"sum_hessian":[2.285E3,2.236E3,4.9E1,2.201E3,3.5E1,4.3E1,6E0,2.169E3,3.2E1,3.3E1,1E1,1.787E3,3.82E2,1.2E1,2E1,2.8E1,5E0,1.753E3,3.4E1,3E2,8.2E1,1.4E1,6E0,1.278E3,4.75E2,2.9E1,5E0,2.91E2,9E0,7E0,7.5E1,2E0,1.2E1],"tree_param":{"num_deleted":"0","num_feature":"13063","num_nodes":"33","size_leaf_vector":"1"}},{"base_weights":[6.7255454E-4,-1.8507063E-3,1.1354979E-1,-3.232373E-3,8.271265E-3,9.9265456E-2,1.8711567E-2,-4.508874E-3,8.08052E-2,1.077901E-2,6.389243E-3,-6.718962E-3,1.9188252E-3,1.914833E-2,8.442315E-3,-7.891343E-3,6.29736E-3,9.400794E-3,-7.4112047E-3,-7.5467103E-3,4.149847E-3,-9.4192394E-4,4.1150596E-4,-1.0565681E-3,6.5035914E-4,1.8645868E-3,-4.5426283E-4,-1.1299471E-3,2.483348E-3,-3.2084933E-4,-7.9673214E-4],"categories":[],"categories_nodes":[],"categories_segments":[],"categories_sizes":[],"default_left":[0,0,0,0,0,0,0,0,0,0,0,0,0,0,0,0,0,0,0,0,0,0,0,0,0,0,0,0,0,0,0],"id":23,"left_children":[1,3,5,7,-1,9,-1,11,13,-1,-1,15,17,-1,19,21,23,25,27,29,-1,-1,-1,-1,-1,-1,-1,-1,-1,-1,-1],"loss_changes":[6.513058E-1,2.6163477E-1,3.396797E-2,2.365818E-1,0E0,6.3809156E-3,0E0,3.0839432E-2,2.6268E-1,0E0,0E0,2.469474E-2,3.888236E-2,0E0,1.1412428E-2,2.7225375E-2,5.34724E-4,3.9917264E-2,3.1373836E-2,1.8074643E-6,0E0,0E0,0E0,0E0,0E0,0E0,0E0,0E0,0E0,0E0,0E0],"parents":[2147483647,0,0,1,1,2,2,3,3,5,5,7,7,8,8,11,11,12,12,14,14,15,15,16,16,17,17,18,18,19,19],"right_children":[2,4,6,8,-1,10,-1,12,14,-1,-1,16,18,-1,20,22,24,26,28,30,-1,-1,-1,-1,-1,-1,-1,-1,-1,-1,-1],"split_conditions":[1E0,1E0,1E0,9.16E0,8.271265E-3,1E0,1.8711567E-2,1E0,-3.081815E1,1.077901E-2,6.389243E-3,1E0,-5.069492E-1,1.914833E-2,1E0,1E0,1.396E1,1E0,1E0,1E0,4.149847E-3,-9.4192394E-4,4.1150596E-4,-1.0565681E-3,6.5035914E-4,1.8645868E-3,-4.5426283E-4,-1.1299471E-3,2.483348E-3,-3.2084933E-4,-7.9673214E-4],"split_indices":[1803,2078,4355,4,0,6553,0,2581,8545,0,0,5187,12957,0,8448,839,0,2524,2331,4928,0,0,0,0,0,0,0,0,0,0,0],"split_type":[0,0,0,0,0,0,0,0,0,0,0,0,0,0,0,0,0,0,0,0,0,0,0,0,0,0,0,0,0,0,0],"sum_hessian":[2.285E3,2.236E3,4.9E1,2.201E3,3.5E1,4.3E1,6E0,2.169E3,3.2E1,3.3E1,1E1,1.614E3,5.55E2,1.2E1,2E1,1.481E3,1.33E2,3.08E2,2.47E2,1.4E1,6E0,1.314E3,1.67E2,1E0,1.32E2,1.85E2,1.23E2,2.21E2,2.6E1,2E0,1.2E1],"tree_param":{"num_deleted":"0","num_feature":"13063","num_nodes":"31","size_leaf_vector":"1"}},{"base_weights":[6.351146E-4,-1.6512062E-3,1.029124E-1,-2.8982328E-3,7.467113E-3,8.619029E-2,1.5436441E-2,-4.0571447E-3,7.339682E-2,5.7056877E-3,9.399953E-3,-8.732152E-3,-1.5310891E-3,1.7380795E-2,7.742473E-3,-1.1024978E-2,1.2538E-3,1.3003859E-2,-3.628161E-3,-6.8665453E-4,3.7941446E-3,7.9238473E-4,-1.1380835E-3,2.3558813E-3,-1.3495254E-4,2.5334992E-3,-4.6687463E-4,-9.03028E-4,1.7798385E-4],"categories":[],"categories_nodes":[],"categories_segments":[],"categories_sizes":[],"default_left":[0,0,0,0,0,0,0,0,0,0,0,0,0,0,0,0,0,0,0,0,0,0,0,0,0,0,0,0,0],"id":24,"left_children":[1,3,5,7,-1,9,-1,11,13,-1,-1,15,17,-1,19,21,23,25,27,-1,-1,-1,-1,-1,-1,-1,-1,-1,-1],"loss_changes":[5.347252E-1,2.1312511E-1,2.9714644E-2,1.9499691E-1,0E0,3.737092E-3,0E0,2.561288E-2,2.1620435E-1,0E0,0E0,1.7437715E-2,4.302515E-2,0E0,9.525251E-3,4.2641386E-3,8.335404E-3,3.8908623E-2,3.6037743E-2,0E0,0E0,0E0,0E0,0E0,0E0,0E0,0E0,0E0,0E0],"parents":[2147483647,0,0,1,1,2,2,3,3,5,5,7,7,8,8,11,11,12,12,14,14,15,15,16,16,17,17,18,18],"right_children":[2,4,6,8,-1,10,-1,12,14,-1,-1,16,18,-1,20,22,24,26,28,-1,-1,-1,-1,-1,-1,-1,-1,-1,-1],"split_conditions":[1E0,1E0,1E0,9.16E0,7.467113E-3,1E0,1.5436441E-2,2.86E0,-3.081815E1,5.7056877E-3,9.399953E-3,1E0,-1.580317E0,1.7380795E-2,1E0,1E0,-5.069492E-1,3.8037E2,1E0,-6.8665453E-4,3.7941446E-3,7.9238473E-4,-1.1380835E-3,2.3558813E-3,-1.3495254E-4,2.5334992E-3,-4.6687463E-4,-9.03028E-4,1.7798385E-4],"split_indices":[1803,2078,6428,4,0,8448,0,4,8545,0,0,36,12957,0,8448,12935,12957,6,7420,0,0,0,0,0,0,0,0,0,0],"split_type":[0,0,0,0,0,0,0,0,0,0,0,0,0,0,0,0,0,0,0,0,0,0,0,0,0,0,0,0,0],"sum_hessian":[2.285E3,2.236E3,4.9E1,2.201E3,3.5E1,3.9E1,1E1,2.169E3,3.2E1,1E1,2.9E1,7.6E2,1.409E3,1.2E1,2E1,6.18E2,1.42E2,1.77E2,1.232E3,1.4E1,6E0,1.1E1,6.07E2,1.4E1,1.28E2,1.04E2,7.3E1,6.16E2,6.16E2],"tree_param":{"num_deleted":"0","num_feature":"13063","num_nodes":"29","size_leaf_vector":"1"}},{"base_weights":[5.985991E-4,-1.4721507E-3,9.3231976E-2,-2.5976447E-3,6.741146E-3,8.083356E-2,1.5784597E-2,-3.649948E-3,6.667799E-2,8.803768E-2,5.1217806E-3,-5.533941E-3,1.8290073E-3,1.5776409E-2,7.116207E-3,9.244376E-3,5.2068694E-3,-6.3045663E-3,9.940424E-3,8.212028E-3,-6.131406E-3,-6.2256674E-3,3.4689337E-3,-8.286414E-4,1.1238931E-4,-4.4940697E-4,4.014394E-3,8.4806075E-3,6.6732906E-4,-2.8868436E-4,-3.9330693E-3,-2.5368258E-4,-6.5980415E-4],"categories":[],"categories_nodes":[],"categories_segments":[],"categories_sizes":[],"default_left":[0,0,0,0,0,0,0,0,0,0,0,0,0,0,0,0,0,0,0,0,0,0,0,0,0,0,0,0,0,0,0,0,0],"id":25,"left_children":[1,3,5,7,-1,9,-1,11,13,15,-1,17,19,-1,21,-1,-1,23,25,27,29,31,-1,-1,-1,-1,-1,-1,-1,-1,-1,-1,-1],"loss_changes":[4.3863901E-1,1.7360543E-1,2.7296275E-2,1.607669E-1,0E0,4.878521E-3,0E0,2.2409547E-2,1.7791055E-1,5.749762E-4,0E0,1.9321442E-2,2.8301539E-2,0E0,7.941387E-3,0E0,0E0,2.2666592E-2,3.3750284E-2,3.585224E-2,2.6600316E-2,3.8663275E-6,0E0,0E0,0E0,0E0,0E0,0E0,0E0,0E0,0E0,0E0,0E0],"parents":[2147483647,0,0,1,1,2,2,3,3,5,5,7,7,8,8,9,9,11,11,12,12,14,14,17,17,18,18,19,19,20,20,21,21],"right_children":[2,4,6,8,-1,10,-1,12,14,16,-1,18,20,-1,22,-1,-1,24,26,28,30,32,-1,-1,-1,-1,-1,-1,-1,-1,-1,-1,-1],"split_conditions":[1E0,1E0,1E0,9.16E0,6.741146E-3,1E0,1.5784597E-2,1E0,-3.081815E1,1E0,5.1217806E-3,1E0,-5.069492E-1,1.5776409E-2,1E0,9.244376E-3,5.2068694E-3,1E0,1E0,-9.101E1,1E0,1E0,3.4689337E-3,-8.286414E-4,1.1238931E-4,-4.4940697E-4,4.014394E-3,8.4806075E-3,6.6732906E-4,-2.8868436E-4,-3.9330693E-3,-2.5368258E-4,-6.5980415E-4],"split_indices":[1803,2078,4355,4,0,6553,0,2581,8545,6656,0,6346,12957,0,8448,0,0,1034,791,8542,1555,4928,0,0,0,0,0,0,0,0,0,0,0],"split_type":[0,0,0,0,0,0,0,0,0,0,0,0,0,0,0,0,0,0,0,0,0,0,0,0,0,0,0,0,0,0,0,0,0],"sum_hessian":[2.285E3,2.236E3,4.9E1,2.201E3,3.5E1,4.3E1,6E0,2.169E3,3.2E1,3.3E1,1E1,1.614E3,5.55E2,1.2E1,2E1,2.8E1,5E0,1.538E3,7.6E1,3.08E2,2.47E2,1.4E1,6E0,1.214E3,3.24E2,5.2E1,2.4E1,5E0,3.03E2,2.26E2,2.1E1,2E0,1.2E1],"tree_param":{"num_deleted":"0","num_feature":"13063","num_nodes":"33","size_leaf_vector":"1"}},{"base_weights":[5.685756E-4,-1.3102524E-3,8.461597E-2,-2.3260245E-3,6.085754E-3,7.319509E-2,1.443163E-2,-3.2813703E-3,6.056569E-2,7.965899E-2,4.6561663E-3,-1.8371049E-3,-1.0015222E-2,1.4320125E-2,6.5262723E-3,8.3518205E-3,4.772967E-3,-2.516939E-3,3.2284785E-2,-9.478502E-3,-4.2159385E-3,-5.664E-3,3.171596E-3,1.0228665E-3,-3.6805504E-4,1.3742438E-3,1.1961572E-2,-7.652753E-4,-1.385712E-3,-2.3677052E-4,-5.988991E-4],"categories":[],"categories_nodes":[],"categories_segments":[],"categories_sizes":[],"default_left":[0,0,0,0,0,0,0,0,0,0,0,0,0,0,0,0,0,0,0,0,0,0,0,0,0,0,0,0,0,0,0],"id":26,"left_children":[1,3,5,7,-1,9,-1,11,13,15,-1,17,19,-1,21,-1,-1,23,25,27,-1,29,-1,-1,-1,-1,-1,-1,-1,-1,-1],"loss_changes":[3.6109444E-1,1.4140432E-1,2.3528278E-2,1.3250227E-1,0E0,3.8658082E-3,0E0,2.1085871E-2,1.4642946E-1,2.0323694E-4,0E0,4.1557893E-2,6.2080696E-3,0E0,6.6280914E-3,0E0,0E0,2.6051097E-2,5.5032402E-2,2.9157847E-3,0E0,1.8888386E-6,0E0,0E0,0E0,0E0,0E0,0E0,0E0,0E0,0E0],"parents":[2147483647,0,0,1,1,2,2,3,3,5,5,7,7,8,8,9,9,11,11,12,12,14,14,17,17,18,18,19,19,21,21],"right_children":[2,4,6,8,-1,10,-1,12,14,16,-1,18,20,-1,22,-1,-1,24,26,28,-1,30,-1,-1,-1,-1,-1,-1,-1,-1,-1],"split_conditions":[1E0,1E0,1E0,9.16E0,6.085754E-3,1E0,1.443163E-2,2.4E1,-3.081815E1,1E0,4.6561663E-3,1E0,1E0,1.4320125E-2,1E0,8.3518205E-3,4.772967E-3,-1.9005728E0,1E0,1E0,-4.2159385E-3,1E0,3.171596E-3,1.0228665E-3,-3.6805504E-4,1.3742438E-3,1.1961572E-2,-7.652753E-4,-1.385712E-3,-2.3677052E-4,-5.988991E-4],"split_indices":[1803,2078,4355,4,0,6553,0,12932,8545,6656,0,768,259,0,8448,0,0,12957,7171,2433,0,4928,0,0,0,0,0,0,0,0,0],"split_type":[0,0,0,0,0,0,0,0,0,0,0,0,0,0,0,0,0,0,0,0,0,0,0,0,0,0,0,0,0,0,0],"sum_hessian":[2.285E3,2.236E3,4.9E1,2.201E3,3.5E1,4.3E1,6E0,2.169E3,3.2E1,3.3E1,1E1,1.787E3,3.82E2,1.2E1,2E1,2.8E1,5E0,1.753E3,3.4E1,3.77E2,5E0,1.4E1,6E0,1.46E2,1.607E3,2.9E1,5E0,2.68E2,1.09E2,2E0,1.2E1],"tree_param":{"num_deleted":"0","num_feature":"13063","num_nodes":"31","size_leaf_vector":"1"}},{"base_weights":[5.390928E-4,-1.1656526E-3,7.6798625E-2,-2.3799627E-3,4.2190388E-2,6.6279694E-2,1.31946355E-2,-3.2618346E-3,5.5013843E-2,5.444611E-2,-1.846707E-2,7.2079124E-3,4.232876E-3,-8.599695E-3,-1.843616E-3,1.2998263E-2,5.984882E-3,-2.305576E-3,5.8079977E-3,-3.1771343E-3,-1.1980417E-3,1.0043073E-2,-8.959842E-3,-2.4944625E-3,3.31936E-2,-5.153311E-4,2.8997455E-3,-5.0986273E-4,1.5097649E-3,-7.944216E-4,-1.3746355E-3,6.413301E-7,-7.990642E-4,1.4273658E-3,1.0964775E-2],"categories":[],"categories_nodes":[],"categories_segments":[],"categories_sizes":[],"default_left":[0,0,0,0,0,0,0,0,0,0,0,0,0,0,0,0,0,0,0,0,0,0,0,0,0,0,0,0,0,0,0,0,0,0,0],"id":27,"left_children":[1,3,5,7,9,11,-1,13,15,17,19,-1,-1,21,23,-1,25,-1,-1,-1,-1,27,29,31,33,-1,-1,-1,-1,-1,-1,-1,-1,-1,-1],"loss_changes":[2.972766E-1,1.1787326E-1,2.025938E-2,1.10366106E-1,4.6352908E-2,3.0606538E-3,0E0,1.6222341E-2,1.2051827E-1,1.5702292E-2,5.6866836E-4,0E0,0E0,3.1113513E-3,3.8758118E-2,0E0,5.532121E-3,0E0,0E0,0E0,0E0,7.657911E-4,2.0394921E-3,2.2899656E-2,4.327668E-2,0E0,0E0,0E0,0E0,0E0,0E0,0E0,0E0,0E0,0E0],"parents":[2147483647,0,0,1,1,2,2,3,3,4,4,5,5,7,7,8,8,9,9,10,10,13,13,14,14,16,16,21,21,22,22,23,23,24,24],"right_children":[2,4,6,8,10,12,-1,14,16,18,20,-1,-1,22,24,-1,26,-1,-1,-1,-1,28,30,32,34,-1,-1,-1,-1,-1,-1,-1,-1,-1,-1],"split_conditions":[1E0,1E0,1E0,9.16E0,4.712E1,1E0,1.31946355E-2,0E0,-3.081815E1,1E0,1E0,7.2079124E-3,4.232876E-3,-4.2324345E1,1E0,1.2998263E-2,1E0,-2.305576E-3,5.8079977E-3,-3.1771343E-3,-1.1980417E-3,6.93E0,1E0,1E0,1E0,-5.153311E-4,2.8997455E-3,-5.0986273E-4,1.5097649E-3,-7.944216E-4,-1.3746355E-3,6.413301E-7,-7.990642E-4,1.4273658E-3,1.0964775E-2],"split_indices":[1803,588,4355,4,8544,6553,0,12958,8545,7427,8448,0,0,12960,768,0,8448,0,0,0,0,0,2433,4091,7171,0,0,0,0,0,0,0,0,0,0],"split_type":[0,0,0,0,0,0,0,0,0,0,0,0,0,0,0,0,0,0,0,0,0,0,0,0,0,0,0,0,0,0,0,0,0,0,0],"sum_hessian":[2.285E3,2.236E3,4.9E1,2.176E3,6E1,4.3E1,6E0,2.144E3,3.2E1,5E1,1E1,3.3E1,1E1,4.49E2,1.695E3,1.2E1,2E1,2E0,4.8E1,2E0,8E0,8E0,4.41E2,1.665E3,3E1,1.4E1,6E0,2E0,6E0,3.66E2,7.5E1,1.145E3,5.2E2,2.5E1,5E0],"tree_param":{"num_deleted":"0","num_feature":"13063","num_nodes":"35","size_leaf_vector":"1"}},{"base_weights":[5.068686E-4,-1.0379405E-3,6.961149E-2,-2.1301112E-3,3.795704E-2,5.9911773E-2,1.2063663E-2,-2.9307911E-3,4.9978636E-2,4.9070165E-2,-1.7018111E-2,6.533948E-2,3.7688687E-3,-3.5419571E-3,8.977021E-3,1.1798433E-2,5.4999385E-3,-2.151871E-3,5.23905E-2,-2.9653253E-3,-1.0915495E-3,6.8495064E-3,3.9197584E-3,-1.8379526E-3,-8.471607E-3,-5.2850526E-3,4.0254425E-2,-4.6723355E-3,2.6511964E-3,7.204648E-3,4.8519447E-3,-4.3898277E-4,3.9145318E-4,-9.447317E-4,3.253144E-4,4.6465225E-3,-1.1477737E-3,4.209138E-3,-9.264077E-4,-1.8663034E-4,-4.960471E-4],"categories":[],"categories_nodes":[],"categories_segments":[],"categories_sizes":[],"default_left":[0,0,0,0,0,0,0,0,0,0,0,0,0,0,0,0,0,0,0,0,0,0,0,0,0,0,0,0,0,0,0,0,0,0,0,0,0,0,0,0,0],"id":28,"left_children":[1,3,5,7,9,11,-1,13,15,17,19,21,-1,23,25,-1,27,-1,29,-1,-1,-1,-1,31,33,35,37,39,-1,-1,-1,-1,-1,-1,-1,-1,-1,-1,-1,-1,-1],"loss_changes":[2.4411063E-1,9.5352836E-2,1.7518923E-2,9.097621E-2,3.8102783E-2,2.844736E-3,0E0,1.564235E-2,9.916967E-2,1.3080686E-2,5.245018E-4,1.19924545E-4,0E0,1.7129127E-2,4.7051214E-2,0E0,4.612415E-3,0E0,2.3272634E-4,0E0,0E0,0E0,0E0,2.2300847E-2,6.025262E-3,2.3927856E-2,3.3917278E-3,2.8700451E-6,0E0,0E0,0E0,0E0,0E0,0E0,0E0,0E0,0E0,0E0,0E0,0E0,0E0],"parents":[2147483647,0,0,1,1,2,2,3,3,4,4,5,5,7,7,8,8,9,9,10,10,11,11,13,13,14,14,16,16,18,18,23,23,24,24,25,25,26,26,27,27],"right_children":[2,4,6,8,10,12,-1,14,16,18,20,22,-1,24,26,-1,28,-1,30,-1,-1,-1,-1,32,34,36,38,40,-1,-1,-1,-1,-1,-1,-1,-1,-1,-1,-1,-1,-1],"split_conditions":[1E0,1E0,1E0,9.16E0,4.712E1,1E0,1.2063663E-2,1E0,-3.081815E1,1E0,1E0,1E0,3.7688687E-3,1E0,1E0,1.1798433E-2,1E0,-2.151871E-3,1E0,-2.9653253E-3,-1.0915495E-3,6.8495064E-3,3.9197584E-3,1E0,1E0,-1E1,1.084E1,1E0,2.6511964E-3,7.204648E-3,4.8519447E-3,-4.3898277E-4,3.9145318E-4,-9.447317E-4,3.253144E-4,4.6465225E-3,-1.1477737E-3,4.209138E-3,-9.264077E-4,-1.8663034E-4,-4.960471E-4],"split_indices":[1803,588,4355,4,8544,6683,0,6346,8545,7427,8448,6656,0,2953,256,0,8448,0,8448,0,0,0,0,3104,7492,8541,0,4928,0,0,0,0,0,0,0,0,0,0,0,0,0],"split_type":[0,0,0,0,0,0,0,0,0,0,0,0,0,0,0,0,0,0,0,0,0,0,0,0,0,0,0,0,0,0,0,0,0,0,0,0,0,0,0,0,0],"sum_hessian":[2.285E3,2.236E3,4.9E1,2.176E3,6E1,4.3E1,6E0,2.144E3,3.2E1,5E1,1E1,3.3E1,1E1,2.04E3,1.04E2,1.2E1,2E1,2E0,4.8E1,2E0,8E0,2.8E1,5E0,1.517E3,5.23E2,7.2E1,3.2E1,1.4E1,6E0,5E0,4.3E1,1.051E3,4.66E2,4.83E2,4E1,7E0,6.5E1,3.1E1,1E0,2E0,1.2E1],"tree_param":{"num_deleted":"0","num_feature":"13063","num_nodes":"41","size_leaf_vector":"1"}},{"base_weights":[4.7907373E-4,-9.226445E-4,6.318237E-2,-1.9079676E-3,3.4257207E-2,5.425099E-2,1.1029638E-2,-2.6348615E-3,4.539796E-2,4.435737E-2,-1.5685108E-2,5.912226E-3,3.4262433E-3,-3.1880883E-3,8.143905E-3,1.0709348E-2,5.0436854E-3,-2.008413E-3,4.7397517E-2,-2.7676371E-3,-9.94523E-4,-1.749282E-3,-8.496073E-3,-4.7086193E-3,3.632846E-2,-4.250614E-3,2.4239514E-3,6.604261E-3,4.3777786E-3,-3.1318565E-4,1.0271331E-3,-2.9846288E-3,-7.010039E-4,4.2399517E-3,-1.0347355E-3,3.8013782E-3,-8.800874E-4,-1.7418838E-4,-4.5025814E-4],"categories":[],"categories_nodes":[],"categories_segments":[],"categories_sizes":[],"default_left":[0,0,0,0,0,0,0,0,0,0,0,0,0,0,0,0,0,0,0,0,0,0,0,0,0,0,0,0,0,0,0,0,0,0,0,0,0,0,0],"id":29,"left_children":[1,3,5,7,9,11,-1,13,15,17,19,-1,-1,21,23,-1,25,-1,27,-1,-1,29,31,33,35,37,-1,-1,-1,-1,-1,-1,-1,-1,-1,-1,-1,-1,-1],"loss_changes":[2.0098019E-1,7.760767E-2,1.5055969E-2,7.49788E-2,3.1465717E-2,2.2585988E-3,0E0,1.2816814E-2,8.161923E-2,1.0943428E-2,4.8186444E-4,0E0,0E0,1.5572587E-2,3.820654E-2,0E0,3.8496805E-3,0E0,4.158169E-4,0E0,0E0,2.6739532E-2,1.3592087E-2,1.9829733E-2,2.8444491E-3,1.6388076E-6,0E0,0E0,0E0,0E0,0E0,0E0,0E0,0E0,0E0,0E0,0E0,0E0,0E0],"parents":[2147483647,0,0,1,1,2,2,3,3,4,4,5,5,7,7,8,8,9,9,10,10,13,13,14,14,16,16,18,18,21,21,22,22,23,23,24,24,25,25],"right_children":[2,4,6,8,10,12,-1,14,16,18,20,-1,-1,22,24,-1,26,-1,28,-1,-1,30,32,34,36,38,-1,-1,-1,-1,-1,-1,-1,-1,-1,-1,-1,-1,-1],"split_conditions":[1E0,1E0,1E0,9.16E0,4.712E1,1E0,1.1029638E-2,1E0,-3.081815E1,1E0,1E0,5.912226E-3,3.4262433E-3,1.9E1,1E0,1.0709348E-2,1E0,-2.008413E-3,1E0,-2.7676371E-3,-9.94523E-4,8.3991724E2,1E0,-1E1,1.084E1,1E0,2.4239514E-3,6.604261E-3,4.3777786E-3,-3.1318565E-4,1.0271331E-3,-2.9846288E-3,-7.010039E-4,4.2399517E-3,-1.0347355E-3,3.8013782E-3,-8.800874E-4,-1.7418838E-4,-4.5025814E-4],"split_indices":[1803,588,4355,4,8544,6683,0,6346,8545,7427,8448,0,0,12949,256,0,8448,0,8448,0,0,12958,4034,8541,0,4928,0,0,0,0,0,0,0,0,0,0,0,0,0],"split_type":[0,0,0,0,0,0,0,0,0,0,0,0,0,0,0,0,0,0,0,0,0,0,0,0,0,0,0,0,0,0,0,0,0,0,0,0,0,0,0],"sum_hessian":[2.285E3,2.236E3,4.9E1,2.176E3,6E1,4.3E1,6E0,2.144E3,3.2E1,5E1,1E1,3.3E1,1E1,2.04E3,1.04E2,1.2E1,2E1,2E0,4.8E1,2E0,8E0,1.606E3,4.34E2,7.2E1,3.2E1,1.4E1,6E0,5E0,4.3E1,1.441E3,1.65E2,2.7E1,4.07E2,7E0,6.5E1,3.1E1,1E0,2E0,1.2E1],"tree_param":{"num_deleted":"0","num_feature":"13063","num_nodes":"39","size_leaf_vector":"1"}},{"base_weights":[4.4920802E-4,-8.210489E-4,5.7271518E-2,-1.7099763E-3,3.0916918E-2,4.283506E-2,8.05566E-2,-2.3699047E-3,4.1237187E-2,4.0097583E-2,-1.4458611E-2,3.3040612E-3,4.9161515E-3,6.2010153E-3,1.0084244E-2,-1.2645744E-3,-7.6518226E-3,9.720784E-3,4.625013E-3,-1.8745189E-3,4.2881884E-2,-2.5831282E-3,-9.061208E-4,-1.8843705E-3,2.7900022E-2,-6.7178635E-3,-2.3706907E-2,-3.8671825E-4,2.216186E-3,6.0539055E-3,3.94995E-3,-5.671539E-4,1.102929E-4,1.0044521E-2,1.3425923E-3,-7.0077594E-4,2.0255027E-3,-8.2932255E-4,-2.97204E-3],"categories":[],"categories_nodes":[],"categories_segments":[],"categories_sizes":[],"default_left":[0,0,0,0,0,0,0,0,0,0,0,0,0,0,0,0,0,0,0,0,0,0,0,0,0,0,0,0,0,0,0,0,0,0,0,0,0,0,0],"id":30,"left_children":[1,3,5,7,9,11,13,15,17,19,21,-1,-1,-1,-1,23,25,-1,27,-1,29,-1,-1,31,33,35,37,-1,-1,-1,-1,-1,-1,-1,-1,-1,-1,-1,-1],"loss_changes":[1.6504808E-1,6.316478E-2,1.3357058E-2,6.179838E-2,2.5990982E-2,4.2049214E-4,5.188957E-4,1.2513401E-2,6.7174256E-2,9.159461E-3,4.411491E-4,0E0,0E0,0E0,0E0,3.2137655E-2,5.4038074E-3,0E0,3.2131567E-3,0E0,5.3518265E-4,0E0,0E0,1.9680269E-2,3.7502397E-2,2.8943494E-3,1.607324E-3,0E0,0E0,0E0,0E0,0E0,0E0,0E0,0E0,0E0,0E0,0E0,0E0],"parents":[2147483647,0,0,1,1,2,2,3,3,4,4,5,5,6,6,7,7,8,8,9,9,10,10,15,15,16,16,18,18,20,20,23,23,24,24,25,25,26,26],"right_children":[2,4,6,8,10,12,14,16,18,20,22,-1,-1,-1,-1,24,26,-1,28,-1,30,-1,-1,32,34,36,38,-1,-1,-1,-1,-1,-1,-1,-1,-1,-1,-1,-1],"split_conditions":[1E0,1E0,1E0,9.16E0,4.712E1,1E0,1E0,1E0,-3.081815E1,1E0,1E0,3.3040612E-3,4.9161515E-3,6.2010153E-3,1.0084244E-2,1E0,1E0,9.720784E-3,1E0,-1.8745189E-3,1E0,-2.5831282E-3,-9.061208E-4,1E0,1E0,1E0,1E0,-3.8671825E-4,2.216186E-3,6.0539055E-3,3.94995E-3,-5.671539E-4,1.102929E-4,1.0044521E-2,1.3425923E-3,-7.0077594E-4,2.0255027E-3,-8.2932255E-4,-2.97204E-3],"split_indices":[1803,588,6462,4,8544,7181,4355,8288,8545,7427,8448,0,0,0,0,768,2610,0,8448,0,8448,0,0,3245,6479,1304,2831,0,0,0,0,0,0,0,0,0,0,0,0],"split_type":[0,0,0,0,0,0,0,0,0,0,0,0,0,0,0,0,0,0,0,0,0,0,0,0,0,0,0,0,0,0,0,0,0,0,0,0,0,0,0],"sum_hessian":[2.285E3,2.236E3,4.9E1,2.176E3,6E1,3.2E1,1.7E1,2.144E3,3.2E1,5E1,1E1,1.5E1,1.7E1,1.1E1,6E0,1.774E3,3.7E2,1.2E1,2E1,2E0,4.8E1,2E0,8E0,1.738E3,3.6E1,3.51E2,1.9E1,1.4E1,6E0,5E0,4.3E1,7.66E2,9.72E2,5E0,3.1E1,3.48E2,3E0,6E0,1.3E1],"tree_param":{"num_deleted":"0","num_feature":"13063","num_nodes":"39","size_leaf_vector":"1"}},{"base_weights":[4.2578758E-4,-7.27927E-4,5.2034464E-2,-1.5297896E-3,2.79013E-2,4.2316902E-2,8.264065E-3,-2.1289731E-3,3.7463497E-2,3.624723E-2,-1.3329956E-2,4.6252157E-3,2.7737392E-3,-3.1071724E-3,3.4187424E-3,8.823487E-3,4.249627E-3,-1.7495509E-3,3.8797863E-2,-2.4109194E-3,-8.2557695E-4,-3.865104E-3,5.8978E-3,1.4779193E-3,4.6011284E-3,-3.5062453E-3,2.0262261E-3,5.5494118E-3,3.563933E-3,-4.627224E-4,7.182638E-4,1.0883888E-3,-3.4047891E-3,-6.268289E-4,5.9758266E-4,-1.3679465E-4,-3.7299877E-4],"categories":[],"categories_nodes":[],"categories_segments":[],"categories_sizes":[],"default_left":[0,0,0,0,0,0,0,0,0,0,0,0,0,0,0,0,0,0,0,0,0,0,0,0,0,0,0,0,0,0,0,0,0,0,0,0,0],"id":31,"left_children":[1,3,5,7,9,11,-1,13,15,17,19,-1,-1,21,23,-1,25,-1,27,-1,-1,29,31,33,-1,35,-1,-1,-1,-1,-1,-1,-1,-1,-1,-1,-1],"loss_changes":[1.3615017E-1,5.1396836E-2,1.1373773E-2,5.094348E-2,2.1474086E-2,1.0120496E-3,0E0,1.1651047E-2,5.5273395E-2,7.669762E-3,4.026147E-4,0E0,0E0,1.2471875E-2,2.6549999E-2,0E0,2.6790756E-3,0E0,6.062761E-4,0E0,0E0,1.4203593E-2,2.8653102E-2,1.0803552E-2,0E0,2.0740117E-6,0E0,0E0,0E0,0E0,0E0,0E0,0E0,0E0,0E0,0E0,0E0],"parents":[2147483647,0,0,1,1,2,2,3,3,4,4,5,5,7,7,8,8,9,9,10,10,13,13,14,14,16,16,18,18,21,21,22,22,23,23,25,25],"right_children":[2,4,6,8,10,12,-1,14,16,18,20,-1,-1,22,24,-1,26,-1,28,-1,-1,30,32,34,-1,36,-1,-1,-1,-1,-1,-1,-1,-1,-1,-1,-1],"split_conditions":[1E0,1E0,1E0,9.16E0,4.712E1,1E0,8.264065E-3,1E0,-3.081815E1,1E0,1E0,4.6252157E-3,2.7737392E-3,1E0,1E0,8.823487E-3,1E0,-1.7495509E-3,1E0,-2.4109194E-3,-8.2557695E-4,2.121483E0,1.25E0,1E0,4.6011284E-3,1E0,2.0262261E-3,5.5494118E-3,3.563933E-3,-4.627224E-4,7.182638E-4,1.0883888E-3,-3.4047891E-3,-6.268289E-4,5.9758266E-4,-1.3679465E-4,-3.7299877E-4],"split_indices":[1803,588,6428,4,8544,6553,0,7545,8545,7427,8448,0,0,961,3845,0,8448,0,8448,0,0,12957,13030,3805,0,4928,0,0,0,0,0,0,0,0,0,0,0],"split_type":[0,0,0,0,0,0,0,0,0,0,0,0,0,0,0,0,0,0,0,0,0,0,0,0,0,0,0,0,0,0,0,0,0,0,0,0,0],"sum_hessian":[2.285E3,2.236E3,4.9E1,2.176E3,6E1,3.9E1,1E1,2.144E3,3.2E1,5E1,1E1,2.9E1,1E1,1.823E3,3.21E2,1.2E1,2E1,2E0,4.8E1,2E0,8E0,1.682E3,1.41E2,3.08E2,1.3E1,1.4E1,6E0,5E0,4.3E1,1.574E3,1.08E2,1.26E2,1.5E1,1.13E2,1.95E2,2E0,1.2E1],"tree_param":{"num_deleted":"0","num_feature":"13063","num_nodes":"37","size_leaf_vector":"1"}},{"base_weights":[3.974871E-4,-6.4754515E-4,4.7144283E-2,-1.3709079E-3,2.517882E-2,4.0031977E-2,8.51153E-3,-1.914905E-3,3.403045E-2,3.2766882E-2,-1.2291188E-2,4.3788753E-2,2.4780852E-3,-1.2036238E-3,-8.981657E-3,8.0090035E-3,3.8968755E-3,-1.6329142E-3,3.510405E-2,-2.2501915E-3,-7.521925E-4,4.5971773E-3,2.5939376E-3,-1.7887756E-3,1.11979805E-2,3.5606597E-3,-1.009603E-2,-3.1896068E-3,1.8525498E-3,5.086959E-3,3.2156387E-3,-4.974668E-4,1.3582667E-4,-1.986728E-4,3.4333305E-3,-1.8737033E-3,-8.8675646E-4,-1.2767488E-4,-3.3856812E-4],"categories":[],"categories_nodes":[],"categories_segments":[],"categories_sizes":[],"default_left":[0,0,0,0,0,0,0,0,0,0,0,0,0,0,0,0,0,0,0,0,0,0,0,0,0,0,0,0,0,0,0,0,0,0,0,0,0,0,0],"id":32,"left_children":[1,3,5,7,9,11,-1,13,15,17,19,21,-1,23,25,-1,27,-1,29,-1,-1,-1,-1,31,33,-1,35,37,-1,-1,-1,-1,-1,-1,-1,-1,-1,-1,-1],"loss_changes":[1.1170599E-1,4.182577E-2,1.0095745E-2,4.199034E-2,1.7746564E-2,1.435861E-3,0E0,1.0770919E-2,4.5489915E-2,6.425243E-3,3.6641653E-4,1.3235211E-4,0E0,1.4170828E-2,1.0098323E-2,0E0,2.2360643E-3,0E0,6.413236E-4,0E0,0E0,0E0,0E0,1.8685453E-2,2.6911072E-2,0E0,1.8719621E-3,1.3032695E-6,0E0,0E0,0E0,0E0,0E0,0E0,0E0,0E0,0E0,0E0,0E0],"parents":[2147483647,0,0,1,1,2,2,3,3,4,4,5,5,7,7,8,8,9,9,10,10,11,11,13,13,14,14,16,16,18,18,23,23,24,24,26,26,27,27],"right_children":[2,4,6,8,10,12,-1,14,16,18,20,22,-1,24,26,-1,28,-1,30,-1,-1,-1,-1,32,34,-1,36,38,-1,-1,-1,-1,-1,-1,-1,-1,-1,-1,-1],"split_conditions":[1E0,1E0,1E0,9.16E0,4.712E1,1E0,8.51153E-3,1E0,-3.081815E1,1E0,1E0,1E0,2.4780852E-3,1E0,1E0,8.0090035E-3,1E0,-1.6329142E-3,1E0,-2.2501915E-3,-7.521925E-4,4.5971773E-3,2.5939376E-3,1E0,1E0,3.5606597E-3,1E0,1E0,1.8525498E-3,5.086959E-3,3.2156387E-3,-4.974668E-4,1.3582667E-4,-1.986728E-4,3.4333305E-3,-1.8737033E-3,-8.8675646E-4,-1.2767488E-4,-3.3856812E-4],"split_indices":[1803,588,4355,4,8544,6683,0,3009,8545,7427,8448,6656,0,6346,12935,0,8448,0,8448,0,0,0,0,7448,256,0,2622,4928,0,0,0,0,0,0,0,0,0,0,0],"split_type":[0,0,0,0,0,0,0,0,0,0,0,0,0,0,0,0,0,0,0,0,0,0,0,0,0,0,0,0,0,0,0,0,0,0,0,0,0,0,0],"sum_hessian":[2.285E3,2.236E3,4.9E1,2.176E3,6E1,4.3E1,6E0,2.144E3,3.2E1,5E1,1E1,3.3E1,1E1,1.949E3,1.95E2,1.2E1,2E1,2E0,4.8E1,2E0,8E0,2.8E1,5E0,1.862E3,8.7E1,4E0,1.91E2,1.4E1,6E0,5E0,4.3E1,9.25E2,9.37E2,5.6E1,3.1E1,2.2E1,1.69E2,2E0,1.2E1],"tree_param":{"num_deleted":"0","num_feature":"13063","num_nodes":"39","size_leaf_vector":"1"}},{"base_weights":[3.730131E-4,-5.753084E-4,4.2793456E-2,-1.2278137E-3,2.2721075E-2,3.1364433E-2,6.1369255E-2,-1.7217019E-3,3.0912127E-2,2.9620992E-2,-1.133501E-2,2.4404682E-3,3.580841E-3,4.6659065E-3,7.781969E-3,-2.5604723E-3,3.5059345E-3,7.269715E-3,3.573206E-3,-1.5240533E-3,3.1763107E-2,-2.1001787E-3,-6.853305E-4,-1.2426792E-3,-7.4237874E-3,5.615433E-4,3.551845E-2,-2.9017293E-4,1.693761E-3,4.663047E-3,2.901385E-3,-2.0098213E-4,1.147173E-3,3.2758068E-3,-7.919904E-4,-6.8893994E-4,5.632053E-4,3.995299E-3,2.3195613E-3],"categories":[],"categories_nodes":[],"categories_segments":[],"categories_sizes":[],"default_left":[0,0,0,0,0,0,0,0,0,0,0,0,0,0,0,0,0,0,0,0,0,0,0,0,0,0,0,0,0,0,0,0,0,0,0,0,0,0,0],"id":33,"left_children":[1,3,5,7,9,11,13,15,17,19,21,-1,-1,-1,-1,23,25,-1,27,-1,29,-1,-1,31,33,35,37,-1,-1,-1,-1,-1,-1,-1,-1,-1,-1,-1,-1],"loss_changes":[9.198632E-2,3.4032565E-2,8.69035E-3,3.4609918E-2,1.4669795E-2,1.4676154E-4,7.248074E-4,9.414343E-3,3.743803E-2,5.385112E-3,3.326285E-4,0E0,0E0,0E0,0E0,1.1840725E-2,2.7974494E-2,0E0,1.8663548E-3,0E0,6.499104E-4,0E0,0E0,1.4224529E-2,8.113788E-3,1.03527615E-2,4.3941662E-4,0E0,0E0,0E0,0E0,0E0,0E0,0E0,0E0,0E0,0E0,0E0,0E0],"parents":[2147483647,0,0,1,1,2,2,3,3,4,4,5,5,6,6,7,7,8,8,9,9,10,10,15,15,16,16,18,18,20,20,23,23,24,24,25,25,26,26],"right_children":[2,4,6,8,10,12,14,16,18,20,22,-1,-1,-1,-1,24,26,-1,28,-1,30,-1,-1,32,34,36,38,-1,-1,-1,-1,-1,-1,-1,-1,-1,-1,-1,-1],"split_conditions":[1E0,1E0,1E0,9.16E0,4.712E1,1E0,1E0,1E0,-3.081815E1,1E0,1E0,2.4404682E-3,3.580841E-3,4.6659065E-3,7.781969E-3,1E0,1E0,7.269715E-3,1E0,-1.5240533E-3,1E0,-2.1001787E-3,-6.853305E-4,1E0,1E0,1E0,1E0,-2.9017293E-4,1.693761E-3,4.663047E-3,2.901385E-3,-2.0098213E-4,1.147173E-3,3.2758068E-3,-7.919904E-4,-6.8893994E-4,5.632053E-4,3.995299E-3,2.3195613E-3],"split_indices":[1803,588,6462,4,8544,7181,4355,8485,8545,7427,8448,0,0,0,0,3347,2274,0,8448,0,8448,0,0,6346,12935,4112,13062,0,0,0,0,0,0,0,0,0,0,0,0],"split_type":[0,0,0,0,0,0,0,0,0,0,0,0,0,0,0,0,0,0,0,0,0,0,0,0,0,0,0,0,0,0,0,0,0,0,0,0,0,0,0],"sum_hessian":[2.285E3,2.236E3,4.9E1,2.176E3,6E1,3.2E1,1.7E1,2.144E3,3.2E1,5E1,1E1,1.5E1,1.7E1,1.1E1,6E0,1.848E3,2.96E2,1.2E1,2E1,2E0,4.8E1,2E0,8E0,1.455E3,3.93E2,2.72E2,2.4E1,1.4E1,6E0,5E0,4.3E1,1.373E3,8.2E1,4E0,3.89E2,1.1E2,1.62E2,1.6E1,8E0],"tree_param":{"num_deleted":"0","num_feature":"13063","num_nodes":"39","size_leaf_vector":"1"}},{"base_weights":[3.5321733E-4,-5.0814543E-4,3.8883522E-2,-9.587607E-4,2.7068607E-3,3.2866593E-2,7.1149417E-3,-1.3999788E-3,2.8083723E-2,3.596254E-2,2.0309438E-3,-2.9542854E-3,1.6511709E-3,6.59866E-3,3.2827205E-3,3.766421E-3,2.1744051E-3,-4.206819E-3,4.431221E-3,9.39766E-4,3.347227E-2,-2.630901E-3,1.5485807E-3,-4.6885278E-4,3.2740063E-4,1.9735575E-4,4.133342E-3,-9.2964957E-4,4.3818174E-4,9.205827E-3,-1.526664E-4,-9.981841E-5,-2.8053048E-4],"categories":[],"categories_nodes":[],"categories_segments":[],"categories_sizes":[],"default_left":[0,0,0,0,0,0,0,0,0,0,0,0,0,0,0,0,0,0,0,0,0,0,0,0,0,0,0,0,0,0,0,0,0],"id":34,"left_children":[1,3,5,7,-1,9,-1,11,13,15,-1,17,19,-1,21,-1,-1,23,25,27,29,31,-1,-1,-1,-1,-1,-1,-1,-1,-1,-1,-1],"loss_changes":[7.588883E-2,2.7824046E-2,7.3686317E-3,2.8255897E-2,0E0,9.801798E-4,0E0,1.0295933E-2,3.0804355E-2,3.6619604E-6,0E0,1.3321E-2,1.6561966E-2,0E0,1.5561946E-3,0E0,0E0,4.4477526E-3,1.8873306E-2,2.5338555E-2,3.29477E-2,1.4710749E-6,0E0,0E0,0E0,0E0,0E0,0E0,0E0,0E0,0E0,0E0,0E0],"parents":[2147483647,0,0,1,1,2,2,3,3,5,5,7,7,8,8,9,9,11,11,12,12,14,14,17,17,18,18,19,19,20,20,21,21],"right_children":[2,4,6,8,-1,10,-1,12,14,16,-1,18,20,-1,22,-1,-1,24,26,28,30,32,-1,-1,-1,-1,-1,-1,-1,-1,-1,-1,-1],"split_conditions":[1E0,1E0,1E0,9.16E0,2.7068607E-3,1E0,7.1149417E-3,1E0,-3.081815E1,1E0,2.0309438E-3,1E0,2.210028E0,6.59866E-3,1E0,3.766421E-3,2.1744051E-3,1E0,1E0,2.130456E0,1.103E1,1E0,1.5485807E-3,-4.6885278E-4,3.2740063E-4,1.9735575E-4,4.133342E-3,-9.2964957E-4,4.3818174E-4,9.205827E-3,-1.526664E-4,-9.981841E-5,-2.8053048E-4],"split_indices":[1803,2078,4355,4,0,6683,0,3162,8545,6656,0,7285,12957,0,8448,0,0,4355,1860,12940,0,4928,0,0,0,0,0,0,0,0,0,0,0],"split_type":[0,0,0,0,0,0,0,0,0,0,0,0,0,0,0,0,0,0,0,0,0,0,0,0,0,0,0,0,0,0,0,0,0],"sum_hessian":[2.285E3,2.236E3,4.9E1,2.201E3,3.5E1,4.3E1,6E0,2.169E3,3.2E1,3.3E1,1E1,1.437E3,7.32E2,1.2E1,2E1,2.8E1,5E0,1.229E3,2.08E2,7.17E2,1.5E1,1.4E1,6E0,1.155E3,7.4E1,1.96E2,1.2E1,1.8E2,5.37E2,5E0,1E1,2E0,1.2E1],"tree_param":{"num_deleted":"0","num_feature":"13063","num_nodes":"33","size_leaf_vector":"1"}},{"base_weights":[3.3465406E-4,-4.4694962E-4,3.529691E-2,-9.858251E-4,1.8792046E-2,2.5525305E-2,5.1250577E-2,-1.3930043E-3,2.55107E-2,2.4817623E-2,-1.0853088E-2,2.6976615E-3,1.4498313E-3,3.8929482E-3,6.5050945E-3,-8.191004E-4,-8.229973E-3,5.9895497E-3,3.010079E-3,-1.4060674E-3,2.6691444E-2,-1.989379E-3,-6.6336227E-4,-2.3581437E-3,2.5057541E-3,-7.5398427E-3,-1.3835236E-2,-2.3931675E-4,1.4158454E-3,4.2379466E-3,2.3945547E-3,-3.5172512E-4,4.0088184E-4,9.196058E-4,-2.7133373E-4,-5.0339865E-4,-7.682875E-4,-5.783779E-4,-1.4523178E-3],"categories":[],"categories_nodes":[],"categories_segments":[],"categories_sizes":[],"default_left":[0,0,0,0,0,0,0,0,0,0,0,0,0,0,0,0,0,0,0,0,0,0,0,0,0,0,0,0,0,0,0,0,0,0,0,0,0,0,0],"id":35,"left_children":[1,3,5,7,9,11,13,15,17,19,21,-1,-1,-1,-1,23,25,-1,27,-1,29,-1,-1,31,33,35,37,-1,-1,-1,-1,-1,-1,-1,-1,-1,-1,-1,-1],"loss_changes":[6.2484443E-2,2.3210447E-2,6.486457E-3,2.3522833E-2,1.1165723E-2,1.3700314E-4,5.2824244E-4,8.409729E-3,2.5351128E-2,4.0907003E-3,2.876484E-4,0E0,0E0,0E0,0E0,1.0137758E-2,5.3783134E-4,0E0,1.2988694E-3,0E0,1.0960102E-3,0E0,0E0,1.000661E-2,2.1918103E-2,1.5088357E-5,1.016329E-5,0E0,0E0,0E0,0E0,0E0,0E0,0E0,0E0,0E0,0E0,0E0,0E0],"parents":[2147483647,0,0,1,1,2,2,3,3,4,4,5,5,6,6,7,7,8,8,9,9,10,10,15,15,16,16,18,18,20,20,23,23,24,24,25,25,26,26],"right_children":[2,4,6,8,10,12,14,16,18,20,22,-1,-1,-1,-1,24,26,-1,28,-1,30,-1,-1,32,34,36,38,-1,-1,-1,-1,-1,-1,-1,-1,-1,-1,-1,-1],"split_conditions":[1E0,1E0,1E0,9.16E0,4.712E1,1E0,1E0,1E0,-3.081815E1,1E0,1E0,2.6976615E-3,1.4498313E-3,3.8929482E-3,6.5050945E-3,1E0,1E0,5.9895497E-3,1E0,-1.4060674E-3,1E0,-1.989379E-3,-6.6336227E-4,1E0,-5.069492E-1,2E0,1.6696033E0,-2.3931675E-4,1.4158454E-3,4.2379466E-3,2.3945547E-3,-3.5172512E-4,4.0088184E-4,9.196058E-4,-2.7133373E-4,-5.0339865E-4,-7.682875E-4,-5.783779E-4,-1.4523178E-3],"split_indices":[1803,588,6462,4,8544,7171,4355,3372,8545,7427,8448,0,0,0,0,3162,3081,0,8448,0,8448,0,0,7285,12957,12853,12940,0,0,0,0,0,0,0,0,0,0,0,0],"split_type":[0,0,0,0,0,0,0,0,0,0,0,0,0,0,0,0,0,0,0,0,0,0,0,0,0,0,0,0,0,0,0,0,0,0,0,0,0,0,0],"sum_hessian":[2.285E3,2.236E3,4.9E1,2.176E3,6E1,3.2E1,1.7E1,2.144E3,3.2E1,5E1,1E1,2.7E1,5E0,1.1E1,6E0,1.979E3,1.65E2,1.2E1,2E1,2E0,4.8E1,2E0,8E0,1.353E3,6.26E2,1.49E2,1.6E1,1.4E1,6E0,5E0,4.3E1,1.145E3,2.08E2,2.74E2,3.52E2,1E1,1.39E2,2E0,1.4E1],"tree_param":{"num_deleted":"0","num_feature":"13063","num_nodes":"39","size_leaf_vector":"1"}},{"base_weights":[3.106727E-4,-3.9906488E-4,3.205812E-2,-8.8514696E-4,1.695503E-2,2.3098432E-2,4.6703205E-2,-1.254918E-3,2.3176799E-2,2.2438336E-2,-1.0008939E-2,2.4375266E-3,1.3290127E-3,3.5360993E-3,5.9475116E-3,-7.1577863E-3,-6.775765E-4,5.4366714E-3,2.7650953E-3,-1.3123296E-3,2.4157653E-2,-1.8567538E-3,-6.0439686E-4,-3.2931832E-3,-1.225472E-2,3.6913517E-4,-4.988693E-3,-2.169805E-3,1.2944869E-3,3.8847849E-3,2.1605408E-3,-5.8650074E-4,6.9784895E-5,-1.05815E-3,-2.8670449E-3,-1.6260288E-5,2.3755063E-3,-4.4306993E-4,-3.921789E-3,-7.720937E-5,-2.325446E-4],"categories":[],"categories_nodes":[],"categories_segments":[],"categories_sizes":[],"default_left":[0,0,0,0,0,0,0,0,0,0,0,0,0,0,0,0,0,0,0,0,0,0,0,0,0,0,0,0,0,0,0,0,0,0,0,0,0,0,0,0,0],"id":36,"left_children":[1,3,5,7,9,11,13,15,17,19,21,-1,-1,-1,-1,23,25,-1,27,-1,29,-1,-1,31,33,35,37,39,-1,-1,-1,-1,-1,-1,-1,-1,-1,-1,-1,-1,-1],"loss_changes":[5.1521756E-2,1.8885255E-2,5.482003E-3,1.939875E-2,9.243537E-3,8.93306E-5,5.0441176E-4,7.305249E-3,2.0858768E-2,3.4352578E-3,2.610589E-4,0E0,0E0,0E0,0E0,3.721889E-3,8.823771E-3,0E0,1.0830474E-3,0E0,9.978339E-4,0E0,0E0,1.1331587E-3,1.9489294E-3,1.957685E-2,7.122321E-3,1.4676552E-6,0E0,0E0,0E0,0E0,0E0,0E0,0E0,0E0,0E0,0E0,0E0,0E0,0E0],"parents":[2147483647,0,0,1,1,2,2,3,3,4,4,5,5,6,6,7,7,8,8,9,9,10,10,15,15,16,16,18,18,20,20,23,23,24,24,25,25,26,26,27,27],"right_children":[2,4,6,8,10,12,14,16,18,20,22,-1,-1,-1,-1,24,26,-1,28,-1,30,-1,-1,32,34,36,38,40,-1,-1,-1,-1,-1,-1,-1,-1,-1,-1,-1,-1,-1],"split_conditions":[1E0,1E0,1E0,9.16E0,4.712E1,1E0,1E0,1.8168831E0,-3.081815E1,1E0,1E0,2.4375266E-3,1.3290127E-3,3.5360993E-3,5.9475116E-3,1E0,2.4E1,5.4366714E-3,1E0,-1.3123296E-3,1E0,-1.8567538E-3,-6.0439686E-4,1E0,1E0,1E0,1E0,1E0,1.2944869E-3,3.8847849E-3,2.1605408E-3,-5.8650074E-4,6.9784895E-5,-1.05815E-3,-2.8670449E-3,-1.6260288E-5,2.3755063E-3,-4.4306993E-4,-3.921789E-3,-7.720937E-5,-2.325446E-4],"split_indices":[1803,588,6462,4,8544,7171,4355,12943,8545,7427,8448,0,0,0,0,3055,12932,0,8448,0,8448,0,0,4228,1555,768,259,4928,0,0,0,0,0,0,0,0,0,0,0,0,0],"split_type":[0,0,0,0,0,0,0,0,0,0,0,0,0,0,0,0,0,0,0,0,0,0,0,0,0,0,0,0,0,0,0,0,0,0,0,0,0,0,0,0,0],"sum_hessian":[2.285E3,2.236E3,4.9E1,2.176E3,6E1,3.2E1,1.7E1,2.144E3,3.2E1,5E1,1E1,2.7E1,5E0,1.1E1,6E0,1.9E2,1.954E3,1.2E1,2E1,2E0,4.8E1,2E0,8E0,1.09E2,8.1E1,1.573E3,3.81E2,1.4E1,6E0,5E0,4.3E1,6.6E1,4.3E1,7.5E1,6E0,1.539E3,3.4E1,3.76E2,5E0,2E0,1.2E1],"tree_param":{"num_deleted":"0","num_feature":"13063","num_nodes":"41","size_leaf_vector":"1"}},{"base_weights":[2.8638408E-4,-3.58155E-4,2.9117335E-2,-7.966446E-4,1.5296764E-2,2.0902758E-2,4.255976E-2,-1.1324324E-3,2.1053702E-2,2.0287298E-2,-9.231783E-3,1.6090032E-3,2.4019473E-3,3.2119562E-3,5.4377285E-3,-4.4687267E-4,-6.0578603E-3,4.9348245E-3,2.5354761E-3,-1.2248409E-3,2.1865254E-2,-1.7329702E-3,-5.506724E-4,-1.3050807E-3,5.116225E-3,3.0806896E-3,-6.7488137E-3,-1.9734749E-3,1.1835302E-3,3.5610523E-3,1.9493962E-3,-5.353496E-4,-1.7633194E-5,7.6457736E-4,-2.630644E-3,2.2893113E-3,-7.666689E-4,-7.2062016E-5,-2.1107894E-4],"categories":[],"categories_nodes":[],"categories_segments":[],"categories_sizes":[],"default_left":[0,0,0,0,0,0,0,0,0,0,0,0,0,0,0,0,0,0,0,0,0,0,0,0,0,0,0,0,0,0,0,0,0,0,0,0,0,0,0],"id":37,"left_children":[1,3,5,7,9,11,13,15,17,19,21,-1,-1,-1,-1,23,25,-1,27,-1,29,-1,-1,31,33,-1,35,37,-1,-1,-1,-1,-1,-1,-1,-1,-1,-1,-1],"loss_changes":[4.2490426E-2,1.5368116E-2,4.631575E-3,1.5996663E-2,7.6543316E-3,1.08523294E-4,4.7421828E-4,7.2402605E-3,1.7165713E-2,2.88615E-3,2.3638754E-4,0E0,0E0,0E0,0E0,9.00145E-3,6.8815276E-3,0E0,9.039384E-4,0E0,9.029191E-4,0E0,0E0,7.4612843E-3,2.0231394E-2,0E0,7.1950704E-3,1.0594558E-6,0E0,0E0,0E0,0E0,0E0,0E0,0E0,0E0,0E0,0E0,0E0],"parents":[2147483647,0,0,1,1,2,2,3,3,4,4,5,5,6,6,7,7,8,8,9,9,10,10,15,15,16,16,18,18,20,20,23,23,24,24,26,26,27,27],"right_children":[2,4,6,8,10,12,14,16,18,20,22,-1,-1,-1,-1,24,26,-1,28,-1,30,-1,-1,32,34,-1,36,38,-1,-1,-1,-1,-1,-1,-1,-1,-1,-1,-1],"split_conditions":[1E0,1E0,1E0,9.16E0,4.712E1,1E0,1E0,1E0,-3.081815E1,1E0,1E0,1.6090032E-3,2.4019473E-3,3.2119562E-3,5.4377285E-3,1E0,1E0,4.9348245E-3,1E0,-1.2248409E-3,1E0,-1.7329702E-3,-5.506724E-4,1E0,1.25E0,3.0806896E-3,0E0,1E0,1.1835302E-3,3.5610523E-3,1.9493962E-3,-5.353496E-4,-1.7633194E-5,7.6457736E-4,-2.630644E-3,2.2893113E-3,-7.666689E-4,-7.2062016E-5,-2.1107894E-4],"split_indices":[1803,588,6462,4,8544,7181,4355,2962,8545,7427,8448,0,0,0,0,2669,12935,0,8448,0,8448,0,0,3454,13030,0,13011,4928,0,0,0,0,0,0,0,0,0,0,0],"split_type":[0,0,0,0,0,0,0,0,0,0,0,0,0,0,0,0,0,0,0,0,0,0,0,0,0,0,0,0,0,0,0,0,0,0,0,0,0,0,0],"sum_hessian":[2.285E3,2.236E3,4.9E1,2.176E3,6E1,3.2E1,1.7E1,2.144E3,3.2E1,5E1,1E1,1.5E1,1.7E1,1.1E1,6E0,1.883E3,2.61E2,1.2E1,2E1,2E0,4.8E1,2E0,8E0,1.632E3,2.51E2,4E0,2.57E2,1.4E1,6E0,5E0,4.3E1,3.55E2,1.277E3,2.33E2,1.8E1,7E0,2.5E2,2E0,1.2E1],"tree_param":{"num_deleted":"0","num_feature":"13063","num_nodes":"39","size_leaf_vector":"1"}},{"base_weights":[2.676684E-4,-3.17859E-4,2.6458811E-2,-6.0869916E-4,1.9125184E-2,1.8934028E-2,3.878431E-2,-1.018171E-3,1.379992E-2,4.479309E-3,2.3248028E-3,1.4581595E-3,2.1750967E-3,2.9175251E-3,4.9716374E-3,-1.4449329E-3,6.668777E-3,1.8342616E-2,-8.516209E-3,-1.7950035E-4,1.0820845E-3,-1.030233E-3,-1.6066924E-2,2.4221777E-3,8.199611E-3,-1.1431848E-3,1.9791203E-2,-1.617439E-3,-5.017238E-4,-2.2644576E-4,2.9125775E-4,-3.711292E-4,-3.2386463E-3,-4.745027E-4,1.0525623E-3,3.2642947E-3,1.7588893E-3],"categories":[],"categories_nodes":[],"categories_segments":[],"categories_sizes":[],"default_left":[0,0,0,0,0,0,0,0,0,0,0,0,0,0,0,0,0,0,0,0,0,0,0,0,0,0,0,0,0,0,0,0,0,0,0,0,0],"id":38,"left_children":[1,3,5,7,9,11,13,15,17,-1,19,-1,-1,-1,-1,21,23,25,27,-1,-1,29,31,33,-1,-1,35,-1,-1,-1,-1,-1,-1,-1,-1,-1,-1],"loss_changes":[3.5065662E-2,1.2661468E-2,3.902994E-3,1.3023381E-2,1.4126476E-2,8.7434426E-5,4.403554E-4,7.0463014E-3,6.3401097E-3,0E0,7.5446645E-4,0E0,0E0,0E0,0E0,1.2311028E-2,3.59484E-2,2.4259258E-3,2.136025E-4,0E0,0E0,9.632163E-3,1.1171546E-2,6.3224826E-3,0E0,0E0,8.127205E-4,0E0,0E0,0E0,0E0,0E0,0E0,0E0,0E0,0E0,0E0],"parents":[2147483647,0,0,1,1,2,2,3,3,4,4,5,5,6,6,7,7,8,8,10,10,15,15,16,16,17,17,18,18,21,21,22,22,23,23,26,26],"right_children":[2,4,6,8,10,12,14,16,18,-1,20,-1,-1,-1,-1,22,24,26,28,-1,-1,30,32,34,-1,-1,36,-1,-1,-1,-1,-1,-1,-1,-1,-1,-1],"split_conditions":[1E0,9.16E0,1E0,1E0,-3.081815E1,1E0,1E0,2.121483E0,4.712E1,4.479309E-3,1E0,1.4581595E-3,2.1750967E-3,2.9175251E-3,4.9716374E-3,1.9005728E0,1E0,1E0,1E0,-1.7950035E-4,1.0820845E-3,1E0,1E0,1E0,8.199611E-3,-1.1431848E-3,1E0,-1.617439E-3,-5.017238E-4,-2.2644576E-4,2.9125775E-4,-3.711292E-4,-3.2386463E-3,-4.745027E-4,1.0525623E-3,3.2642947E-3,1.7588893E-3],"split_indices":[1803,4,6462,588,8545,7181,4355,12957,8544,0,8448,0,0,0,0,12957,768,7427,8448,0,0,2437,1862,1264,0,0,8448,0,0,0,0,0,0,0,0,0,0],"split_type":[0,0,0,0,0,0,0,0,0,0,0,0,0,0,0,0,0,0,0,0,0,0,0,0,0,0,0,0,0,0,0,0,0,0,0,0,0],"sum_hessian":[2.285E3,2.236E3,4.9E1,2.204E3,3.2E1,3.2E1,1.7E1,2.144E3,6E1,1.2E1,2E1,1.5E1,1.7E1,1.1E1,6E0,2.032E3,1.12E2,5E1,1E1,1.4E1,6E0,1.977E3,5.5E1,1.07E2,5E0,2E0,4.8E1,2E0,8E0,1.506E3,4.71E2,3.2E1,2.3E1,5.7E1,5E1,5E0,4.3E1],"tree_param":{"num_deleted":"0","num_feature":"13063","num_nodes":"37","size_leaf_vector":"1"}},{"base_weights":[2.513556E-4,-2.8054087E-4,2.4043377E-2,-5.446575E-4,1.7375756E-2,1.8993411E-2,4.022113E-3,-9.139145E-4,1.2448799E-2,4.0658363E-3,2.1352961E-3,1.2077495E-3,2.0896136E-3,-1.6756353E-3,3.4037645E-3,1.658444E-2,-7.857241E-3,-1.6274699E-3,9.893323E-4,-2.1849533E-3,6.280328E-3,1.8230772E-3,3.8048667E-3,-1.0669725E-3,1.7914603E-2,-1.5096095E-3,-4.5712624E-4,-5.5291253E-5,-1.7502547E-4,-5.4429856E-4,-8.059992E-6,2.2843573E-4,7.516309E-3,-3.8789908E-4,5.130285E-4,2.992269E-3,1.5869987E-3],"categories":[],"categories_nodes":[],"categories_segments":[],"categories_sizes":[],"default_left":[0,0,0,0,0,0,0,0,0,0,0,0,0,0,0,0,0,0,0,0,0,0,0,0,0,0,0,0,0,0,0,0,0,0,0,0,0],"id":39,"left_children":[1,3,5,7,9,11,-1,13,15,-1,17,-1,-1,19,21,23,25,27,-1,29,31,33,-1,-1,35,-1,-1,-1,-1,-1,-1,-1,-1,-1,-1,-1,-1],"loss_changes":[2.893583E-2,1.0441315E-2,3.3209175E-3,1.05908E-2,1.1622826E-2,2.7399044E-4,0E0,7.060321E-3,5.2529946E-3,0E0,6.2912557E-4,0E0,0E0,7.40478E-3,1.7564243E-2,2.040022E-3,1.9264576E-4,1.0113545E-6,0E0,1.1757688E-2,3.0106187E-2,5.8469987E-3,0E0,0E0,7.281713E-4,0E0,0E0,0E0,0E0,0E0,0E0,0E0,0E0,0E0,0E0,0E0,0E0],"parents":[2147483647,0,0,1,1,2,2,3,3,4,4,5,5,7,7,8,8,10,10,13,13,14,14,15,15,16,16,17,17,19,19,20,20,21,21,24,24],"right_children":[2,4,6,8,10,12,-1,14,16,-1,18,-1,-1,20,22,24,26,28,-1,30,32,34,-1,-1,36,-1,-1,-1,-1,-1,-1,-1,-1,-1,-1,-1,-1],"split_conditions":[1E0,9.16E0,1E0,1E0,-3.081815E1,1E0,4.022113E-3,1E0,4.712E1,4.0658363E-3,1E0,1.2077495E-3,2.0896136E-3,2.121483E0,1E0,1E0,1E0,1E0,9.893323E-4,2.536682E0,1E0,1E0,3.8048667E-3,-1.0669725E-3,1E0,-1.5096095E-3,-4.5712624E-4,-5.5291253E-5,-1.7502547E-4,-5.4429856E-4,-8.059992E-6,2.2843573E-4,7.516309E-3,-3.8789908E-4,5.130285E-4,2.992269E-3,1.5869987E-3],"split_indices":[1803,4,6428,588,8545,8448,0,7545,8544,0,8448,0,0,12957,3845,7427,8448,4928,0,12940,768,3805,0,0,8448,0,0,0,0,0,0,0,0,0,0,0,0],"split_type":[0,0,0,0,0,0,0,0,0,0,0,0,0,0,0,0,0,0,0,0,0,0,0,0,0,0,0,0,0,0,0,0,0,0,0,0,0],"sum_hessian":[2.285E3,2.236E3,4.9E1,2.204E3,3.2E1,3.9E1,1E1,2.144E3,6E1,1.2E1,2E1,1E1,2.9E1,1.823E3,3.21E2,5E1,1E1,1.4E1,6E0,1.714E3,1.09E2,3.08E2,1.3E1,2E0,4.8E1,2E0,8E0,2E0,1.2E1,6.72E2,1.042E3,1.04E2,5E0,1.13E2,1.95E2,5E0,4.3E1],"tree_param":{"num_deleted":"0","num_feature":"13063","num_nodes":"37","size_leaf_vector":"1"}},{"base_weights":[2.3707397E-4,-2.446671E-4,2.1785429E-2,-5.3663447E-4,1.3371188E-2,1.8073166E-2,4.200745E-3,-1.7691221E-3,2.8420542E-3,3.3322472E-2,-4.024943E-3,1.98637E-2,1.0895773E-3,-2.4716656E-3,4.2590294E-3,3.8760025E-3,-2.5160648E-2,-1.09366425E-4,3.681877E-3,8.109167E-4,-1.7266693E-2,2.09073E-3,1.1509021E-3,-3.1649307E-3,4.303527E-3,3.858075E-2,1.3715847E-3,7.074356E-3,-2.6963027E-3,-2.9247154E-2,-1.2809474E-3,-3.3642245E-3,9.045354E-4,-2.4373194E-3,-5.84352E-4,3.24838E-4,-4.01248E-4,-6.939307E-4,4.440235E-4,6.88995E-3,1.1019096E-3,-9.0704294E-4,4.929781E-4,2.683402E-3,4.8070058E-4,2.6241544E-4,-4.950114E-4,-3.3686385E-3,-1.3631416E-3,-1.7880178E-4,-5.843793E-4],"categories":[],"categories_nodes":[],"categories_segments":[],"categories_sizes":[],"default_left":[0,0,0,0,0,0,0,0,0,0,0,0,0,0,0,0,0,0,0,0,0,0,0,0,0,0,0,0,0,0,0,0,0,0,0,0,0,0,0,0,0,0,0,0,0,0,0,0,0,0,0],"id":40,"left_children":[1,3,5,7,9,11,-1,13,15,17,19,21,-1,23,25,27,29,-1,-1,31,33,-1,-1,35,37,39,41,43,45,47,-1,49,-1,-1,-1,-1,-1,-1,-1,-1,-1,-1,-1,-1,-1,-1,-1,-1,-1,-1,-1],"loss_changes":[2.3735672E-2,8.900113E-3,2.9942654E-3,9.128773E-3,1.6446654E-2,3.490299E-4,0E0,6.812E-3,1.7064182E-2,2.6875045E-3,1.6789183E-3,5.582068E-5,0E0,6.7726104E-3,1.6596232E-2,1.191671E-2,6.852951E-4,0E0,0E0,7.180294E-4,4.2582606E-4,0E0,0E0,7.111922E-3,2.3676804E-4,1.0104043E-2,5.840854E-3,1.6940605E-2,2.2433728E-3,5.806349E-4,0E0,4.4267566E-5,0E0,0E0,0E0,0E0,0E0,0E0,0E0,0E0,0E0,0E0,0E0,0E0,0E0,0E0,0E0,0E0,0E0,0E0,0E0],"parents":[2147483647,0,0,1,1,2,2,3,3,4,4,5,5,7,7,8,8,9,9,10,10,11,11,13,13,14,14,15,15,16,16,19,19,20,20,23,23,24,24,25,25,26,26,27,27,28,28,29,29,31,31],"right_children":[2,4,6,8,10,12,-1,14,16,18,20,22,-1,24,26,28,30,-1,-1,32,34,-1,-1,36,38,40,42,44,46,48,-1,50,-1,-1,-1,-1,-1,-1,-1,-1,-1,-1,-1,-1,-1,-1,-1,-1,-1,-1,-1],"split_conditions":[1E0,1.105E1,1E0,1E0,8.75E0,1E0,4.200745E-3,1E0,1E0,1E0,1E0,1E0,1.0895773E-3,1E0,-1.2E1,1E0,3.38E0,-1.09366425E-4,3.681877E-3,9.16E0,1E0,2.09073E-3,1.1509021E-3,-1.9005728E0,1.396E1,1E0,1E0,-1.580317E0,9.82E0,1E0,-1.2809474E-3,1E0,9.045354E-4,-2.4373194E-3,-5.84352E-4,3.24838E-4,-4.01248E-4,-6.939307E-4,4.440235E-4,6.88995E-3,1.1019096E-3,-9.0704294E-4,4.929781E-4,2.683402E-3,4.8070058E-4,2.6241544E-4,-4.950114E-4,-3.3686385E-3,-1.3631416E-3,-1.7880178E-4,-5.843793E-4],"split_indices":[1803,8543,4355,2581,13039,6553,0,839,4396,2560,3162,6656,0,5187,12946,4172,8543,0,0,4,3328,0,0,12957,0,8448,12929,12957,0,2560,0,725,0,0,0,0,0,0,0,0,0,0,0,0,0,0,0,0,0,0,0],"split_type":[0,0,0,0,0,0,0,0,0,0,0,0,0,0,0,0,0,0,0,0,0,0,0,0,0,0,0,0,0,0,0,0,0,0,0,0,0,0,0,0,0,0,0,0,0,0,0,0,0,0,0],"sum_hessian":[2.285E3,2.236E3,4.9E1,2.19E3,4.6E1,4.3E1,6E0,1.605E3,5.85E2,2.1E1,2.5E1,3.3E1,1E1,1.438E3,1.67E2,5.65E2,2E1,2E0,1.9E1,1.9E1,6E0,2.8E1,5E0,1.305E3,1.33E2,1.2E1,1.55E2,3.8E2,1.85E2,1.4E1,6E0,1.3E1,6E0,3E0,3E0,1.52E2,1.153E3,1E0,1.32E2,5E0,7E0,3.9E1,1.16E2,3.8E1,3.42E2,5.5E1,1.3E2,1E1,4E0,9E0,4E0],"tree_param":{"num_deleted":"0","num_feature":"13063","num_nodes":"51","size_leaf_vector":"1"}},{"base_weights":[2.1922613E-4,-2.1802724E-4,1.9777559E-2,-4.5679815E-4,1.4392849E-3,1.6364317E-2,3.840685E-3,-7.292034E-4,1.20487865E-2,1.3810096E-2,2.202473E-3,-1.4190637E-3,3.1198324E-3,3.015259E-2,-3.73323E-3,1.4623572E-3,7.7121955E-4,3.874975E-3,-2.0714165E-3,1.7623712E-3,3.3439863E-3,-1.0207533E-4,3.332096E-3,7.3689286E-4,-1.597169E-2,-5.9033016E-5,2.1314954E-3,7.640663E-4,-2.6309906E-4,-2.170536E-4,5.396759E-4,-3.082315E-4,8.2700385E-4,-2.2545203E-3,-5.405256E-4],"categories":[],"categories_nodes":[],"categories_segments":[],"categories_sizes":[],"default_left":[0,0,0,0,0,0,0,0,0,0,0,0,0,0,0,0,0,0,0,0,0,0,0,0,0,0,0,0,0,0,0,0,0,0,0],"id":41,"left_children":[1,3,5,7,-1,9,-1,11,13,15,-1,17,19,21,23,-1,-1,25,27,29,-1,-1,-1,31,33,-1,-1,-1,-1,-1,-1,-1,-1,-1,-1],"loss_changes":[1.9554062E-2,7.81069E-3,2.5508106E-3,7.5100902E-3,0E0,3.3198576E-4,0E0,5.729248E-3,1.3541151E-2,5.0916802E-5,0E0,6.3246256E-3,1.3440978E-2,2.2069253E-3,1.4341626E-3,0E0,0E0,1.5665423E-2,8.8731125E-3,4.514232E-3,0E0,0E0,0E0,6.009039E-4,3.6434748E-4,0E0,0E0,0E0,0E0,0E0,0E0,0E0,0E0,0E0,0E0],"parents":[2147483647,0,0,1,1,2,2,3,3,5,5,7,7,8,8,9,9,11,11,12,12,13,13,14,14,17,17,18,18,19,19,23,23,24,24],"right_children":[2,4,6,8,-1,10,-1,12,14,16,-1,18,20,22,24,-1,-1,26,28,30,-1,-1,-1,32,34,-1,-1,-1,-1,-1,-1,-1,-1,-1,-1],"split_conditions":[1E0,1E0,1E0,1.105E1,1.4392849E-3,1E0,3.840685E-3,1E0,8.75E0,1E0,2.202473E-3,-1.580317E0,1E0,1E0,1E0,1.4623572E-3,7.7121955E-4,1E0,-1.4854142E1,1E0,3.3439863E-3,-1.0207533E-4,3.332096E-3,9.16E0,1E0,-5.9033016E-5,2.1314954E-3,7.640663E-4,-2.6309906E-4,-2.170536E-4,5.396759E-4,-3.082315E-4,8.2700385E-4,-2.2545203E-3,-5.405256E-4],"split_indices":[1803,2078,4355,8543,0,7187,0,7545,13039,7171,0,12957,3845,2560,3162,0,0,3354,12960,2776,0,0,0,4,3328,0,0,0,0,0,0,0,0,0,0],"split_type":[0,0,0,0,0,0,0,0,0,0,0,0,0,0,0,0,0,0,0,0,0,0,0,0,0,0,0,0,0,0,0,0,0,0,0],"sum_hessian":[2.285E3,2.236E3,4.9E1,2.201E3,3.5E1,4.3E1,6E0,2.155E3,4.6E1,3.2E1,1.1E1,1.828E3,3.27E2,2.1E1,2.5E1,2.7E1,5E0,2E2,1.628E3,3.14E2,1.3E1,2E0,1.9E1,1.9E1,6E0,1.6E2,4E1,8.8E1,1.54E3,1.51E2,1.63E2,1.3E1,6E0,3E0,3E0],"tree_param":{"num_deleted":"0","num_feature":"13063","num_nodes":"35","size_leaf_vector":"1"}},{"base_weights":[2.0470044E-4,-1.9236546E-4,1.7965335E-2,6.677719E-4,-3.7774823E-3,1.4828702E-2,3.5114833E-3,-1.6311139E-3,3.0753713E-3,2.8796212E-3,-5.631899E-3,1.2496781E-2,2.0005764E-3,-8.6949713E-4,-1.2987848E-2,8.0771674E-4,1.0106618E-2,-3.591298E-4,2.0176903E-3,-5.06367E-3,-1.6786542E-3,9.611126E-4,1.436754E-3,-1.9340612E-3,8.1193205E-3,-4.769504E-3,-2.8364228E-3,-5.0227754E-3,3.1017903E-3,1.1985319E-2,-1.7722255E-2,-3.1195672E-3,4.6981913E-3,-4.1878554E-3,-8.556233E-3,-9.901342E-6,-9.655376E-4,-2.0109881E-4,2.7176493E-3,-5.712966E-4,4.9140275E-4,-4.4702165E-4,-7.91723E-4,5.417419E-4,-6.527937E-5,9.3228277E-4,2.8896912E-3,-1.9191884E-3,-5.9363263E-4,-3.7621456E-4,-1.8712055E-4,7.13734E-4,1.9458294E-4,-4.7238084E-4,-5.90504E-6,-4.4387826E-4,-1.0326919E-3],"categories":[],"categories_nodes":[],"categories_segments":[],"categories_sizes":[],"default_left":[0,0,0,0,0,0,0,0,0,0,0,0,0,0,0,0,0,0,0,0,0,0,0,0,0,0,0,0,0,0,0,0,0,0,0,0,0,0,0,0,0,0,0,0,0,0,0,0,0,0,0,0,0,0,0,0,0],"id":42,"left_children":[1,3,5,7,9,11,-1,13,15,17,19,21,-1,23,25,27,29,31,-1,33,-1,-1,-1,35,37,39,-1,41,43,45,47,49,51,53,55,-1,-1,-1,-1,-1,-1,-1,-1,-1,-1,-1,-1,-1,-1,-1,-1,-1,-1,-1,-1,-1,-1],"loss_changes":[1.6124653E-2,6.900743E-3,2.168877E-3,9.995324E-3,5.361623E-3,2.8118305E-4,0E0,7.980826E-3,1.405483E-2,5.329298E-3,2.063713E-3,4.0058047E-5,0E0,8.312175E-3,7.1940823E-3,8.950465E-3,1.1453066E-2,1.1454502E-3,0E0,9.5523056E-4,0E0,0E0,0E0,1.0994175E-2,1.7815713E-2,3.8437947E-4,0E0,2.6688678E-4,4.176763E-3,8.826043E-3,1.2856396E-4,3.54753E-5,1.808012E-4,5.772733E-4,4.2076688E-4,0E0,0E0,0E0,0E0,0E0,0E0,0E0,0E0,0E0,0E0,0E0,0E0,0E0,0E0,0E0,0E0,0E0,0E0,0E0,0E0,0E0,0E0],"parents":[2147483647,0,0,1,1,2,2,3,3,4,4,5,5,7,7,8,8,9,9,10,10,11,11,13,13,14,14,15,15,16,16,17,17,19,19,23,23,24,24,25,25,27,27,28,28,29,29,30,30,31,31,32,32,33,33,34,34],"right_children":[2,4,6,8,10,12,-1,14,16,18,20,22,-1,24,26,28,30,32,-1,34,-1,-1,-1,36,38,40,-1,42,44,46,48,50,52,54,56,-1,-1,-1,-1,-1,-1,-1,-1,-1,-1,-1,-1,-1,-1,-1,-1,-1,-1,-1,-1,-1,-1],"split_conditions":[1E0,1E0,1E0,1E0,3.596E1,1E0,3.5114833E-3,3E0,1E0,3.595E1,1E0,1E0,2.0005764E-3,1E0,1E0,1E0,1.4166667E1,1E0,2.0176903E-3,1E0,-1.6786542E-3,9.611126E-4,1.436754E-3,1E0,1E0,1E0,-2.8364228E-3,1E0,1E0,1.5E1,9.62E0,1.9839348E1,1E0,1E0,1E0,-9.901342E-6,-9.655376E-4,-2.0109881E-4,2.7176493E-3,-5.712966E-4,4.9140275E-4,-4.4702165E-4,-7.91723E-4,5.417419E-4,-6.527937E-5,9.3228277E-4,2.8896912E-3,-1.9191884E-3,-5.9363263E-4,-3.7621456E-4,-1.8712055E-4,7.13734E-4,1.9458294E-4,-4.7238084E-4,-5.90504E-6,-4.4387826E-4,-1.0326919E-3],"split_indices":[1803,3582,4355,7448,8544,7187,0,8540,2669,8544,468,7181,0,6346,2305,2479,13039,1539,0,4150,0,0,0,3088,256,8448,0,3298,3868,12949,0,12925,8448,121,3104,0,0,0,0,0,0,0,0,0,0,0,0,0,0,0,0,0,0,0,0,0,0],"split_type":[0,0,0,0,0,0,0,0,0,0,0,0,0,0,0,0,0,0,0,0,0,0,0,0,0,0,0,0,0,0,0,0,0,0,0,0,0,0,0,0,0,0,0,0,0,0,0,0,0,0,0,0,0,0,0,0,0],"sum_hessian":[2.285E3,2.236E3,4.9E1,1.804E3,4.32E2,4.3E1,6E0,9.23E2,8.81E2,9.4E1,3.38E2,3.2E1,1.1E1,8.66E2,5.7E1,6.67E2,2.14E2,8E1,1.4E1,3.23E2,1.5E1,1.5E1,1.7E1,7.75E2,9.1E1,3.8E1,1.9E1,1.88E2,4.79E2,2.01E2,1.3E1,5.2E1,2.8E1,2.6E2,6.3E1,6.27E2,1.48E2,6E1,3.1E1,3.5E1,3E0,1.6E2,2.8E1,2.96E2,1.83E2,1.75E2,2.6E1,1.1E1,2E0,3.3E1,1.9E1,1.4E1,1.4E1,2.3E2,3E1,2E1,4.3E1],"tree_param":{"num_deleted":"0","num_feature":"13063","num_nodes":"57","size_leaf_vector":"1"}},{"base_weights":[1.867734E-4,-1.7406678E-4,1.6327027E-2,6.0053647E-4,-3.402669E-3,1.3445821E-2,3.2105036E-3,-1.4694909E-3,2.7684558E-3,2.6165294E-3,-5.0794277E-3,1.1319795E-2,1.8171907E-3,-7.8077003E-4,-1.1739345E-2,7.258045E-4,9.102049E-3,-3.1895775E-4,1.8293724E-3,-4.5633367E-3,-1.5212803E-2,1.1997921E-3,6.268571E-4,-1.0796887E-3,2.7836107E-3,-4.294602E-3,-2.5669627E-3,-4.5270524E-3,2.7926047E-3,1.6232507E-2,2.7604988E-3,-2.8182394E-3,4.2596934E-3,-5.3015645E-3,-1.1577109E-3,-1.7377929E-3,-9.946512E-4,-2.0862615E-4,7.334742E-4,5.5639935E-5,-5.986548E-4,-2.7432232E-4,-5.27656E-4,8.039367E-4,1.4255314E-4,2.4862562E-3,9.667678E-4,5.3261826E-4,-1.6129519E-3,-4.489445E-4,-2.3251811E-4,6.4711884E-4,1.7642186E-4,-7.5743784E-4,-4.4351845E-4,-9.239304E-6,-5.322506E-4],"categories":[],"categories_nodes":[],"categories_segments":[],"categories_sizes":[],"default_left":[0,0,0,0,0,0,0,0,0,0,0,0,0,0,0,0,0,0,0,0,0,0,0,0,0,0,0,0,0,0,0,0,0,0,0,0,0,0,0,0,0,0,0,0,0,0,0,0,0,0,0,0,0,0,0,0,0],"id":43,"left_children":[1,3,5,7,9,11,-1,13,15,17,19,21,-1,23,25,27,29,31,-1,33,35,-1,-1,37,-1,39,-1,41,43,45,47,49,51,53,55,-1,-1,-1,-1,-1,-1,-1,-1,-1,-1,-1,-1,-1,-1,-1,-1,-1,-1,-1,-1,-1,-1],"loss_changes":[1.3316625E-2,5.596525E-3,1.8413067E-3,8.104281E-3,4.383448E-3,2.364004E-4,0E0,6.5263454E-3,1.140411E-2,4.3777544E-3,1.7034616E-3,3.782753E-5,0E0,7.4464753E-3,5.9047854E-3,7.2648553E-3,9.6770935E-3,9.389152E-4,0E0,8.0844015E-4,9.584939E-6,0E0,0E0,7.2908066E-3,0E0,3.2342848E-4,0E0,2.3821695E-4,3.4314403E-3,5.4817777E-3,5.6594764E-3,3.3233315E-5,1.4862663E-4,4.901923E-4,2.6128127E-4,0E0,0E0,0E0,0E0,0E0,0E0,0E0,0E0,0E0,0E0,0E0,0E0,0E0,0E0,0E0,0E0,0E0,0E0,0E0,0E0,0E0,0E0],"parents":[2147483647,0,0,1,1,2,2,3,3,4,4,5,5,7,7,8,8,9,9,10,10,11,11,13,13,14,14,15,15,16,16,17,17,19,19,20,20,23,23,25,25,27,27,28,28,29,29,30,30,31,31,32,32,33,33,34,34],"right_children":[2,4,6,8,10,12,-1,14,16,18,20,22,-1,24,26,28,30,32,-1,34,36,-1,-1,38,-1,40,-1,42,44,46,48,50,52,54,56,-1,-1,-1,-1,-1,-1,-1,-1,-1,-1,-1,-1,-1,-1,-1,-1,-1,-1,-1,-1,-1,-1],"split_conditions":[1E0,1E0,1E0,1E0,3.596E1,1E0,3.2105036E-3,3E0,1E0,3.595E1,1E0,1E0,1.8171907E-3,1E0,1E0,1E0,9.583333E0,1E0,1.8293724E-3,1E0,1E0,1.1997921E-3,6.268571E-4,1E0,2.7836107E-3,1E0,-2.5669627E-3,7.78134E0,1E0,1E0,1.4166667E1,3.6541E2,1E0,1E0,1.2E1,-1.7377929E-3,-9.946512E-4,-2.0862615E-4,7.334742E-4,5.5639935E-5,-5.986548E-4,-2.7432232E-4,-5.27656E-4,8.039367E-4,1.4255314E-4,2.4862562E-3,9.667678E-4,5.3261826E-4,-1.6129519E-3,-4.489445E-4,-2.3251811E-4,6.4711884E-4,1.7642186E-4,-7.5743784E-4,-4.4351845E-4,-9.239304E-6,-5.322506E-4],"split_indices":[1803,3582,4355,7448,8544,7187,0,8540,2669,8544,468,7171,0,1555,2305,2479,13039,1539,0,1111,7613,0,0,6346,0,13014,0,12925,3444,3094,13039,6,8448,3192,12882,0,0,0,0,0,0,0,0,0,0,0,0,0,0,0,0,0,0,0,0,0,0],"split_type":[0,0,0,0,0,0,0,0,0,0,0,0,0,0,0,0,0,0,0,0,0,0,0,0,0,0,0,0,0,0,0,0,0,0,0,0,0,0,0,0,0,0,0,0,0,0,0,0,0,0,0,0,0,0,0,0,0],"sum_hessian":[2.285E3,2.236E3,4.9E1,1.804E3,4.32E2,4.3E1,6E0,9.23E2,8.81E2,9.4E1,3.38E2,3.2E1,1.1E1,8.66E2,5.7E1,6.67E2,2.14E2,8E1,1.4E1,3.23E2,1.5E1,2.7E1,5E0,8.58E2,8E0,3.8E1,1.9E1,1.88E2,4.79E2,1E2,1.14E2,5.2E1,2.8E1,2.65E2,5.8E1,9E0,6E0,7.67E2,9.1E1,1E1,2.8E1,5.7E1,1.31E2,9.8E1,3.81E2,4.2E1,5.8E1,1.01E2,1.3E1,1E1,4.2E1,1.4E1,1.4E1,7.1E1,1.94E2,4.7E1,1.1E1],"tree_param":{"num_deleted":"0","num_feature":"13063","num_nodes":"57","size_leaf_vector":"1"}},{"base_weights":[1.7118668E-4,-1.5656505E-4,1.4831375E-2,-3.4129736E-4,1.1147244E-3,1.2184017E-2,2.9353143E-3,-5.57833E-4,9.59896E-3,1.0243133E-2,1.6506115E-3,-2.5913675E-4,-6.7614596E-3,2.4202356E-2,-3.1269495E-3,7.7643135E-4,1.1877464E-3,-6.031025E-4,1.3288752E-2,-4.9022106E-3,-1.9832496E-3,-8.070181E-5,2.6743645E-3,6.3734176E-4,-1.3435361E-2,-1.9540226E-5,-6.303363E-4,-4.2468216E-4,2.3833213E-3,-2.0222882E-4,-7.371456E-4,-2.2422805E-4,6.3055375E-4,-1.7426199E-3,-2.3055103E-4],"categories":[],"categories_nodes":[],"categories_segments":[],"categories_sizes":[],"default_left":[0,0,0,0,0,0,0,0,0,0,0,0,0,0,0,0,0,0,0,0,0,0,0,0,0,0,0,0,0,0,0,0,0,0,0],"id":44,"left_children":[1,3,5,7,-1,9,-1,11,13,15,-1,17,19,21,23,-1,-1,25,27,29,-1,-1,-1,31,33,-1,-1,-1,-1,-1,-1,-1,-1,-1,-1],"loss_changes":[1.0986327E-2,4.6750605E-3,1.5645772E-3,4.7449833E-3,0E0,2.0002853E-4,0E0,3.9933156E-3,8.8102305E-3,4.1469466E-5,0E0,9.598314E-3,2.3087054E-3,1.4198162E-3,1.0174634E-3,0E0,0E0,4.6653547E-3,9.531277E-3,6.1088125E-4,0E0,0E0,0E0,3.40584E-4,2.7074572E-4,0E0,0E0,0E0,0E0,0E0,0E0,0E0,0E0,0E0,0E0],"parents":[2147483647,0,0,1,1,2,2,3,3,5,5,7,7,8,8,9,9,11,11,12,12,13,13,14,14,17,17,18,18,19,19,23,23,24,24],"right_children":[2,4,6,8,-1,10,-1,12,14,16,-1,18,20,22,24,-1,-1,26,28,30,-1,-1,-1,32,34,-1,-1,-1,-1,-1,-1,-1,-1,-1,-1],"split_conditions":[1E0,1E0,1E0,1.105E1,1.1147244E-3,1E0,2.9353143E-3,2.235185E1,8.75E0,1E0,1.6506115E-3,1E0,1E0,1E0,1E0,7.7643135E-4,1.1877464E-3,1.19019E1,1E0,1E0,-1.9832496E-3,-8.070181E-5,2.6743645E-3,9.16E0,1E0,-1.9540226E-5,-6.303363E-4,-4.2468216E-4,2.3833213E-3,-2.0222882E-4,-7.371456E-4,-2.2422805E-4,6.3055375E-4,-1.7426199E-3,-2.3055103E-4],"split_indices":[1803,2078,4355,8543,0,7187,0,8545,13039,7181,0,4355,1364,2560,3162,0,0,8545,256,6346,0,0,0,4,3072,0,0,0,0,0,0,0,0,0,0],"split_type":[0,0,0,0,0,0,0,0,0,0,0,0,0,0,0,0,0,0,0,0,0,0,0,0,0,0,0,0,0,0,0,0,0,0,0],"sum_hessian":[2.285E3,2.236E3,4.9E1,2.201E3,3.5E1,4.3E1,6E0,2.155E3,4.6E1,3.2E1,1.1E1,2.057E3,9.8E1,2.1E1,2.5E1,1.5E1,1.7E1,2.007E3,5E1,8.7E1,1.1E1,2E0,1.9E1,1.9E1,6E0,1.874E3,1.33E2,1.9E1,3.1E1,4.1E1,4.6E1,1.3E1,6E0,4E0,2E0],"tree_param":{"num_deleted":"0","num_feature":"13063","num_nodes":"35","size_leaf_vector":"1"}},